 genomestart  1
 trait 1 0.1 0 0 0 0 0 0 0
 trait 2 0.2 0 0 0 0 0 0 0
 trait 3 0.3 0 0 0 0 0 0 0
 node 1 0 1 1
 node 2 0 1 1
 node 3 0 1 1
 node 4 0 1 3
 node 5 0 0 0
 node 6 0 0 0
 node 7 0 0 0
 node 8 0 0 0
 node 9 0 0 2
 node 10 0 0 2
 node 11 0 0 2
 gene 1 1 5 0.0 0 1 0 1
 gene 2 1 6 0.0 0 2 0 1
 gene 3 1 7 0.0 0 3 0 1
 gene 4 1 8 0.0 0 4 0 1
 gene 5 2 5 0.0 0 5 0 1
 gene 6 2 6 0.0 0 6 0 1
 gene 7 2 7 0.0 0 7 0 1
 gene 8 2 8 0.0 0 8 0 1
 gene 9 3 5 0.0 0 9 0 1
 gene 10 3 6 0.0 0 10 0 1
 gene 11 3 7 0.0 0 11 0 1
 gene 12 3 9 0.0 0 12 0 1
 gene 13 5 9 0.0 0 13 0 1
 gene 14 6 9 0.0 0 14 0 1
 gene 15 7 9 0.0 0 15 0 1
 gene 16 8 9 0.0 0 16 0 1
 gene 17 5 10 0.0 0 17 0 1
 gene 18 6 10 0.0 0 18 0 1
 gene 19 7 10 0.0 0 19 0 1
 gene 20 8 10 0.0 0 20 0 1
 gene 21 5 11 0.0 0 21 0 1
 gene 22 6 11 0.0 0 22 0 1
 gene 23 7 11 0.0 0 23 0 1
 gene 24 8 11 0.0 0 24 0 1
 gene 25 4 5 0.0 0 25 0 1
 gene 26 4 6 0.0 0 26 0 1
 gene 27 4 7 0.0 0 27 0 1
 gene 28 4 8 0.0 0 28 0 1
 gene 29 4 9 0.0 0 29 0 1
 gene 30 4 10 0.0 0 30 0 1
 gene 31 4 11 0.0 0 31 0 1
 genomeend 1
