genomestart  1
trait 1 0.0 0.0 0.0 0.0 0.0 0.0 0.0 0.0 
node 1 1 1 1
node 2 1 1 1
node 3 1 1 1
node 4 1 1 1
node 5 1 1 1
node 6 1 1 1
node 7 1 1 1
node 8 1 1 1
node 9 1 1 1
node 10 1 1 3
node 11 1 0 2
node 12 1 0 2
node 13 1 0 2
gene  1 1 11 0.7568347196262368 0 1.0 0.7568347196262368 1
gene  1 2 11 -0.1106156186794196 0 2.0 -0.1106156186794196 1
gene  1 3 11 -0.5049600150657565 0 3.0 -0.5049600150657565 1
gene  1 4 11 0.9583728562888615 0 4.0 0.9583728562888615 1
gene  1 5 11 0.5751735285081607 0 5.0 0.5751735285081607 1
gene  1 6 11 0.9438018056406853 0 6.0 0.9438018056406853 1
gene  1 7 11 0.958093414902408 0 7.0 0.958093414902408 1
gene  1 8 11 0.14844888738701933 0 8.0 0.14844888738701933 1
gene  1 9 11 0.1699958896928565 0 9.0 0.1699958896928565 1
gene  1 10 11 -0.01547650829630709 0 10.0 -0.01547650829630709 1
gene  1 1 12 0.4515219345277015 0 11.0 0.4515219345277015 1
gene  1 2 12 -0.9738027607694694 0 12.0 -0.9738027607694694 1
gene  1 3 12 -0.6956914458696482 0 13.0 -0.6956914458696482 1
gene  1 4 12 -0.31882655315044695 0 14.0 -0.31882655315044695 1
gene  1 5 12 0.34445172230548693 0 15.0 0.34445172230548693 1
gene  1 6 12 -0.865717647213101 0 16.0 -0.865717647213101 1
gene  1 7 12 -0.7367345919637275 0 17.0 -0.7367345919637275 1
gene  1 8 12 -0.43383593716662217 0 18.0 -0.43383593716662217 1
gene  1 9 12 0.44772870955555166 0 19.0 0.44772870955555166 1
gene  1 10 12 -0.30156923395887136 0 20.0 -0.30156923395887136 1
gene  1 1 13 0.2336592742045186 0 21.0 0.2336592742045186 1
gene  1 2 13 0.11659389191704883 0 22.0 0.11659389191704883 1
gene  1 3 13 0.6847984514640444 0 23.0 0.6847984514640444 1
gene  1 4 13 0.5134844090990988 0 24.0 0.5134844090990988 1
gene  1 5 13 -0.009208867056919368 0 25.0 -0.009208867056919368 1
gene  1 6 13 -0.07620104525373705 0 26.0 -0.07620104525373705 1
gene  1 7 13 0.2721721038959666 0 27.0 0.2721721038959666 1
gene  1 8 13 0.8678514448358587 0 28.0 0.8678514448358587 1
gene  1 9 13 0.9253066108266835 0 29.0 0.9253066108266835 1
gene  1 10 13 0.7299393163118207 0 30.0 0.7299393163118207 1
genomeend 1
