/* Species # 362         : (size= 001) (AvfFit= 0,165) (Age= 22,000)  */
/*-------------------------------------------------------------------*/
/* Organism # 000 Fitness:  0,000 Error:  0,000                      */
genomestart  0
trait 1 0.48943095868929576 0.0 0.0 0.3699575824465779 0.7221710368380094 0.0 0.0 0.08915491342848193 
trait 2 1.1617727389316044 0.03170152795957956 0.08181549485392925 0.0 0.0 0.15183219442820362 0.0 1.0154089906758657 
trait 3 1.3349674790612385 0.7716771141090721 0.2835045572317134 0.8247570619431228 0.7583928086149767 0.7735234890578204 0.8904769207061063 0.5718968628186825 
node 1 1 1 1
node 2 1 1 1
node 3 1 1 3
node 4 3 0 2
node 5 1 0 2
node 7 2 0 0
node 10 2 0 0
node 21 2 0 0
node 34 1 0 0
node 176 1 0 0
node 236 3 0 0
node 244 3 0 0
node 293 1 0 0
node 412 1 0 0
node 426 3 0 0
node 440 1 0 0
node 466 1 0 0
node 484 1 0 0
node 502 1 0 0
node 510 1 0 0
node 522 1 0 0
node 590 1 0 0
node 611 1 0 0
node 628 1 0 0
node 705 1 0 0
node 887 1 0 0
node 927 1 0 0
node 943 1 0 0
node 1123 1 0 0
node 1146 1 0 0
node 1161 3 0 0
node 1216 1 0 0
node 1280 1 0 0
node 1421 1 0 0
node 1444 1 0 0
node 1469 1 0 0
gene  2 1 4 -8.721889415410061 0 1.0 -8.721889415410061 1
gene  2 2 4 -2.6861900095960567 0 2.0 -2.6861900095960567 1
gene  2 3 4 -2.5762882138549514 0 3.0 -2.5762882138549514 1
gene  2 1 5 -7.600780139647381 0 4.0 -7.600780139647381 1
gene  2 2 5 4.932309716661999 0 5.0 4.932309716661999 0
gene  2 3 5 0.5293139371318878 0 6.0 0.5293139371318878 1
gene  1 1 7 -1.578821319474837 0 13.0 -1.578821319474837 1
gene  3 7 4 0.012559045100988042 0 14.0 0.012559045100988042 1
gene  1 5 7 2.929922617357862 0 17.0 2.929922617357862 1
gene  2 2 10 -10.464139930265167 0 26.0 -10.464139930265167 1
gene  1 10 4 -2.4891248177590612 0 27.0 -2.4891248177590612 1
gene  2 2 21 -2.6079451443654076 0 83.0 -2.6079451443654076 1
gene  2 21 4 -7.276844579949458 0 84.0 -7.276844579949458 1
gene  2 1 34 7.146564746414495 0 140.0 7.146564746414495 1
gene  2 34 5 7.873802659828625 0 141.0 7.873802659828625 1
gene  1 34 21 17.14904233481208 0 333.0 17.14904233481208 1
gene  2 1 10 2.972896509809724 0 502.0 2.972896509809724 1
gene  2 10 5 -1.444807549696474 0 544.0 -1.444807549696474 1
gene  3 3 7 2.633387536266682 0 744.0 2.633387536266682 1
gene  1 34 176 -0.6307989220915262 0 769.0 -0.6307989220915262 1
gene  1 176 21 -1.7396760506632591 0 770.0 -1.7396760506632591 1
gene  2 1 176 2.061076264835189 0 830.0 2.061076264835189 1
gene  1 2 7 2.0720667567780726 0 942.0 2.0720667567780726 1
gene  1 1 236 -5.272771566503125 0 1009.0 -5.272771566503125 1
gene  1 236 5 2.25781654779369 0 1010.0 2.25781654779369 1
gene  1 5 244 -3.008337334429035 0 1042.0 -3.008337334429035 1
gene  1 244 7 4.064473491195123 0 1043.0 4.064473491195123 1
gene  2 2 293 2.207259795409584 0 1235.0 2.207259795409584 1
gene  2 293 21 7.307937357795185 0 1236.0 7.307937357795185 1
gene  2 7 293 -2.7450969534496497 0 1614.0 -2.7450969534496497 1
gene  1 236 10 -1.53818456439608 0 1734.0 -1.53818456439608 1
gene  2 2 412 -1.5445299225599403 0 1770.0 -1.5445299225599403 1
gene  2 412 10 9.230523915528781 0 1771.0 9.230523915528781 1
gene  1 5 426 2.6244497228096013 0 1846.0 2.6244497228096013 1
gene  1 426 7 2.7954653867569967 0 1847.0 2.7954653867569967 1
gene  2 244 293 6.9156273449742365 0 1883.0 6.9156273449742365 1
gene  2 2 440 1.7120277554459977 0 1903.0 1.7120277554459977 1
gene  2 440 412 3.8423555507068876 0 1904.0 3.8423555507068876 1
gene  1 1 244 -4.280340685918827 0 1984.0 -4.280340685918827 1
gene  1 1 466 4.828984626650279 0 2026.0 4.828984626650279 1
gene  1 466 7 2.1286250311759307 0 2027.0 2.1286250311759307 1
gene  2 3 293 -6.71266686699698 0 2100.0 -6.71266686699698 1
gene  1 1 484 0.5606957796730242 0 2116.0 0.5606957796730242 1
gene  1 484 244 0.8185265799735708 0 2117.0 0.8185265799735708 1
gene  1 466 5 -7.063366752840367 0 2153.0 -7.063366752840367 1
gene  1 236 502 3.5399211470670524 0 2189.0 3.5399211470670524 1
gene  3 502 10 0.1706837917577393 0 2190.0 0.1706837917577393 1
gene  3 34 426 -3.1667718752760257 0 2213.0 -3.1667718752760257 1
gene  1 502 510 -3.3434297999739933 0 2224.0 -3.3434297999739933 1
gene  1 510 10 0.8309071033435063 0 2225.0 0.8309071033435063 1
gene  3 440 21 8.265051666895948 0 2256.0 8.265051666895948 1
gene  1 34 522 -2.913284067589209 0 2274.0 -2.913284067589209 1
gene  3 522 426 5.856760758424964 0 2275.0 5.856760758424964 1
gene  2 466 510 -2.6871438237214633 0 2446.0 -2.6871438237214633 1
gene  2 236 293 4.5843537273415 0 2572.0 4.5843537273415 1
gene  2 412 7 -3.3361908765385095 0 2579.0 -3.3361908765385095 1
gene  1 466 590 4.20378334973075 0 2611.0 4.20378334973075 1
gene  1 590 5 5.85669883822807 0 2612.0 5.85669883822807 1
gene  1 34 611 -8.567489677740962 0 2696.0 -8.567489677740962 1
gene  1 611 176 0.26383948785958755 0 2697.0 0.26383948785958755 1
gene  3 10 611 1.882076940161458 0 2728.0 1.882076940161458 1
gene  2 412 244 4.054071722687718 0 2751.0 4.054071722687718 1
gene  1 5 628 0.1589487620287513 0 2769.0 0.1589487620287513 1
gene  1 628 7 -3.8359107418471585 0 2770.0 -3.8359107418471585 1
gene  2 34 705 -3.561285318689788 0 3123.0 -3.561285318689788 1
gene  2 705 522 3.6869451059613043 0 3124.0 3.6869451059613043 1
gene  1 590 176 3.3530787623821414 0 3271.0 3.3530787623821414 1
gene  1 236 440 -5.960657303706576 0 3959.0 -5.960657303706576 1
gene  1 484 887 -0.046703046599753106 0 3977.0 -0.046703046599753106 1
gene  1 887 244 -9.45285808291382 0 3978.0 -9.45285808291382 1
gene  2 611 484 5.7643483485537566 0 3993.0 5.7643483485537566 1
gene  2 5 611 -2.6177384018379897 0 4021.0 -2.6177384018379897 1
gene  2 611 21 9.332813054582362 0 4166.0 9.332813054582362 1
gene  2 2 927 8.064087156717115 0 4190.0 8.064087156717115 1
gene  2 927 21 0.4594033043525043 0 4191.0 0.4594033043525043 1
gene  1 236 943 -4.6418311067407245 0 4259.0 -4.6418311067407245 1
gene  1 943 10 -1.108718500311653 0 4260.0 -1.108718500311653 1
gene  2 943 293 9.723586441794643 0 4285.0 9.723586441794643 1
gene  1 176 426 -1.359510752841886 0 4524.0 -1.359510752841886 1
gene  2 293 927 -1.042278075773884 0 4598.0 -1.042278075773884 1
gene  2 705 611 0.7207328222514304 0 4636.0 0.7207328222514304 1
gene  1 466 21 -6.003094061175096 0 4649.0 -6.003094061175096 1
gene  3 943 705 0.017503340890287156 0 4696.0 0.017503340890287156 1
gene  2 236 1123 1.9818601499437196 0 5156.0 1.9818601499437196 1
gene  2 1123 293 -6.078027139621697 0 5157.0 -6.078027139621697 1
gene  1 34 927 -1.2315875338729718 0 5208.0 -1.2315875338729718 1
gene  3 412 426 -4.816186671287885 0 5253.0 -4.816186671287885 1
gene  2 236 1146 -5.144206236739669 0 5301.0 -5.144206236739669 1
gene  1 1146 10 5.705008357273559 0 5302.0 5.705008357273559 1
gene  1 611 426 -13.388127372138648 0 5311.0 -13.388127372138648 1
gene  2 628 927 4.207552740687373 0 5356.0 4.207552740687373 1
gene  1 176 1161 -9.496563438662012 0 5366.0 -9.496563438662012 1
gene  1 1161 426 0.14226865050508603 0 5367.0 0.14226865050508603 1
gene  1 3 426 0.16200064984996176 0 5417.0 0.16200064984996176 1
gene  3 502 466 -0.47480884304426585 0 5479.0 -0.47480884304426585 1
gene  1 236 887 0.16576762912698328 0 5520.0 0.16576762912698328 1
gene  2 943 5 -1.0944340287390733 0 5546.0 -1.0944340287390733 1
gene  2 502 1146 -0.7902711675919216 0 5563.0 -0.7902711675919216 1
gene  2 2 1216 3.196011690461968 0 5598.0 3.196011690461968 1
gene  2 1216 5 -0.3288268969899938 0 5599.0 -0.3288268969899938 1
gene  1 628 887 -1.5509632044361585 0 5627.0 -1.5509632044361585 1
gene  1 2 510 1.6658201430071182 0 5860.0 1.6658201430071182 1
gene  2 628 1280 -0.8316541757062629 0 5904.0 -0.8316541757062629 1
gene  2 1280 927 -4.751185947188022 0 5905.0 -4.751185947188022 1
gene  3 1 412 0.5161098139193507 0 6172.0 0.5161098139193507 1
gene  3 522 590 1.1187578604535642 0 6331.0 1.1187578604535642 1
gene  3 34 1421 1.010375608574979 0 6570.0 1.010375608574979 1
gene  3 1421 426 3.036630807311502 0 6571.0 3.036630807311502 1
gene  2 1146 440 -3.0512090130594616 0 6621.0 -3.0512090130594616 1
gene  3 943 611 -0.7049528605027382 0 6683.0 -0.7049528605027382 1
gene  3 440 1444 -0.7196167171342907 0 6701.0 -0.7196167171342907 1
gene  3 1444 21 -0.08662222434640787 0 6702.0 -0.08662222434640787 1
gene  1 611 1469 3.2314904331998884 0 6808.0 3.2314904331998884 1
gene  1 1469 176 2.1544454002907516 0 6809.0 2.1544454002907516 1
gene  2 1216 236 4.436793106414402 0 7016.0 4.436793106414402 1
gene  3 10 244 -3.8487677679299654 0 7099.0 -3.8487677679299654 1
genomeend 0
/*-------------------------------------------------------------------*/
/* Species # 371         : (size= 002) (AvfFit= 0,167) (Age= 19,000)  */
/*-------------------------------------------------------------------*/
/* Organism # 001 Fitness:  0,000 Error:  0,000                      */
genomestart  1
trait 1 0.48943095868929576 0.32181902849234306 0.0 0.3699575824465779 0.15286354174562805 0.0 0.3900313924978889 0.08915491342848193 
trait 2 1.1617727389316044 0.03170152795957956 0.08181549485392925 0.0 0.0 0.15183219442820362 0.0 1.0154089906758657 
trait 3 0.9887508490235056 1.163661137475743 1.159515770475911 2.385934785236945 0.8442597926616394 0.0 1.1227100899246192 0.01220984022418059 
node 1 1 1 1
node 2 1 1 1
node 3 1 1 3
node 4 3 0 2
node 5 1 0 2
node 7 2 0 0
node 10 2 0 0
node 21 1 0 0
node 34 1 0 0
node 176 1 0 0
node 236 3 0 0
node 244 3 0 0
node 293 1 0 0
node 412 1 0 0
node 426 3 0 0
node 440 1 0 0
node 466 1 0 0
node 484 1 0 0
node 502 1 0 0
node 510 1 0 0
node 522 1 0 0
node 590 1 0 0
node 611 1 0 0
node 628 1 0 0
node 705 1 0 0
node 887 1 0 0
node 927 1 0 0
node 943 1 0 0
node 1123 3 0 0
node 1146 1 0 0
node 1161 3 0 0
node 1216 1 0 0
node 1280 1 0 0
node 1421 1 0 0
node 1445 1 0 0
node 1466 1 0 0
node 1486 1 0 0
node 1513 1 0 0
gene  2 1 4 -2.679362837657698 0 1.0 -2.679362837657698 1
gene  2 2 4 -6.500103608242248 0 2.0 -6.500103608242248 1
gene  2 3 4 1.5051169205524573 0 3.0 1.5051169205524573 1
gene  2 1 5 7.5979068164098305 0 4.0 7.5979068164098305 1
gene  2 2 5 -2.835132054629885 0 5.0 -2.835132054629885 1
gene  2 3 5 -4.853589085177494 0 6.0 -4.853589085177494 1
gene  1 1 7 1.5661788977786162 0 13.0 1.5661788977786162 1
gene  3 7 4 -6.345863728090574 0 14.0 -6.345863728090574 1
gene  1 5 7 -3.8021583013996207 0 17.0 -3.8021583013996207 1
gene  2 2 10 -0.9371761620385743 0 26.0 -0.9371761620385743 1
gene  1 10 4 -3.9153582759617738 0 27.0 -3.9153582759617738 1
gene  2 2 21 -1.9919107169030366 0 83.0 -1.9919107169030366 0
gene  2 21 4 -8.30599712338193 0 84.0 -8.30599712338193 1
gene  2 1 34 0.3855145406325451 0 140.0 0.3855145406325451 1
gene  2 34 5 1.1885637534417692 0 141.0 1.1885637534417692 1
gene  1 34 21 7.4422925984856 0 333.0 7.4422925984856 1
gene  2 1 10 -6.554702985342953 0 502.0 -6.554702985342953 1
gene  2 10 5 5.780418438565943 0 544.0 5.780418438565943 1
gene  3 3 7 5.535164694642801 0 744.0 5.535164694642801 1
gene  1 34 176 -7.983869729223902 0 769.0 -7.983869729223902 1
gene  1 176 21 -0.6393369511938767 0 770.0 -0.6393369511938767 1
gene  2 1 176 3.4120592627510447 0 830.0 3.4120592627510447 1
gene  1 2 7 -0.9379005786127411 0 942.0 -0.9379005786127411 1
gene  1 1 236 0.46468246761442705 0 1009.0 0.46468246761442705 1
gene  1 236 5 2.2534328651113675 0 1010.0 2.2534328651113675 1
gene  1 5 244 -0.7085755695726605 0 1042.0 -0.7085755695726605 1
gene  1 244 7 7.234315500685462 0 1043.0 7.234315500685462 1
gene  2 2 293 -3.2008370740350367 0 1235.0 -3.2008370740350367 1
gene  2 293 21 0.08230411544175542 0 1236.0 0.08230411544175542 1
gene  2 7 293 8.381345796646396 0 1614.0 8.381345796646396 1
gene  1 236 10 4.795441280861917 0 1734.0 4.795441280861917 1
gene  2 2 412 -4.549657971104116 0 1770.0 -4.549657971104116 1
gene  2 412 10 -1.5267984212599897 0 1771.0 -1.5267984212599897 1
gene  1 5 426 1.6088378799338563 0 1846.0 1.6088378799338563 1
gene  1 426 7 -5.13270390194751 0 1847.0 -5.13270390194751 1
gene  2 244 293 6.29035460033441 0 1883.0 6.29035460033441 1
gene  2 2 440 2.9268616508149012 0 1903.0 2.9268616508149012 1
gene  2 440 412 2.077873173719458 0 1904.0 2.077873173719458 1
gene  1 1 244 -0.017718309435010626 0 1984.0 -0.017718309435010626 1
gene  1 1 466 -3.500563445937617 0 2026.0 -3.500563445937617 1
gene  1 466 7 -0.4704621671541286 0 2027.0 -0.4704621671541286 1
gene  2 3 293 0.1095935251102107 0 2100.0 0.1095935251102107 1
gene  1 1 484 -2.987299647640634 0 2116.0 -2.987299647640634 1
gene  1 484 244 -1.9142934062906407 0 2117.0 -1.9142934062906407 1
gene  1 466 5 -6.641423684864734 0 2153.0 -6.641423684864734 1
gene  1 236 502 -2.5216468016816544 0 2189.0 -2.5216468016816544 1
gene  3 502 10 -5.070535177491142 0 2190.0 -5.070535177491142 0
gene  3 34 426 5.563565386347851 0 2213.0 5.563565386347851 1
gene  1 502 510 -5.655547326458094 0 2224.0 -5.655547326458094 1
gene  1 510 10 2.4000015145277813 0 2225.0 2.4000015145277813 1
gene  3 440 21 0.8604649503795874 0 2256.0 0.8604649503795874 1
gene  2 34 522 -5.641990307633966 0 2274.0 -5.641990307633966 1
gene  3 522 426 4.506644925043148 0 2275.0 4.506644925043148 1
gene  2 466 510 -6.775072388391443 0 2446.0 -6.775072388391443 1
gene  2 236 293 -0.41540038458356143 0 2572.0 -0.41540038458356143 1
gene  2 412 7 -8.823921098805567 0 2579.0 -8.823921098805567 1
gene  1 466 590 -1.3164108440446416 0 2611.0 -1.3164108440446416 1
gene  1 590 5 1.8983467382165755 0 2612.0 1.8983467382165755 1
gene  1 34 611 -4.430051020074392 0 2696.0 -4.430051020074392 1
gene  1 611 176 -2.771501291720349 0 2697.0 -2.771501291720349 1
gene  3 10 611 -3.50774897472924 0 2728.0 -3.50774897472924 1
gene  2 412 244 -5.495549448807491 0 2751.0 -5.495549448807491 1
gene  1 5 628 -0.3007868103824366 0 2769.0 -0.3007868103824366 1
gene  1 628 7 -2.893732563725612 0 2770.0 -2.893732563725612 1
gene  2 34 705 -0.4098493085076777 0 3123.0 -0.4098493085076777 1
gene  2 705 522 -0.3423468247913082 0 3124.0 -0.3423468247913082 1
gene  1 590 176 -5.0529516410084625 0 3271.0 -5.0529516410084625 1
gene  1 236 440 0.30574990470396823 0 3959.0 0.30574990470396823 1
gene  1 484 887 0.2770644644412332 0 3977.0 0.2770644644412332 1
gene  1 887 244 -4.1039290027412285 0 3978.0 -4.1039290027412285 1
gene  2 611 484 0.4734394216563296 0 3993.0 0.4734394216563296 1
gene  2 5 611 2.109687790257952 0 4021.0 2.109687790257952 1
gene  2 611 21 2.0475382840725 0 4166.0 2.0475382840725 1
gene  2 2 927 1.3396468439500717 0 4190.0 1.3396468439500717 1
gene  2 927 21 -3.3898435221597025 0 4191.0 -3.3898435221597025 1
gene  1 236 943 -2.654886520695281 0 4259.0 -2.654886520695281 1
gene  1 943 10 1.5586569933188963 0 4260.0 1.5586569933188963 1
gene  2 943 293 -1.1090329390815294 0 4285.0 -1.1090329390815294 1
gene  1 176 426 -3.584883656557928 0 4524.0 -3.584883656557928 1
gene  2 293 927 1.8955612463619353 0 4598.0 1.8955612463619353 1
gene  2 705 611 -2.622829513765043 0 4636.0 -2.622829513765043 1
gene  1 466 21 -3.1739931565996047 0 4649.0 -3.1739931565996047 1
gene  3 943 705 13.070441160702586 0 4696.0 13.070441160702586 1
gene  2 236 1123 13.045194603391304 0 5156.0 13.045194603391304 1
gene  2 1123 293 -3.062541662025493 0 5157.0 -3.062541662025493 1
gene  1 34 927 -3.6213995456615895 0 5208.0 -3.6213995456615895 1
gene  3 412 426 1.5197485114230236 0 5253.0 1.5197485114230236 1
gene  1 236 1146 10.500682081913169 0 5301.0 10.500682081913169 1
gene  1 1146 10 -4.302925751448265 0 5302.0 -4.302925751448265 1
gene  1 611 426 0.2717329519784475 0 5311.0 0.2717329519784475 1
gene  2 628 927 -5.01765446967492 0 5356.0 -5.01765446967492 1
gene  1 176 1161 0.49404006419758995 0 5366.0 0.49404006419758995 1
gene  1 1161 426 -2.6726837966845727 0 5367.0 -2.6726837966845727 1
gene  1 3 426 5.8605527915696705 0 5417.0 5.8605527915696705 1
gene  3 502 466 -3.821724609923144 0 5479.0 -3.821724609923144 1
gene  1 236 887 -0.7094295538509099 0 5520.0 -0.7094295538509099 1
gene  2 943 5 1.7270486761036428 0 5546.0 1.7270486761036428 1
gene  2 502 1146 0.9256307541200917 0 5563.0 0.9256307541200917 1
gene  2 2 1216 0.8331237553594911 0 5598.0 0.8331237553594911 1
gene  2 1216 5 5.373197580634873 0 5599.0 5.373197580634873 1
gene  1 628 887 0.6701225595039468 0 5627.0 0.6701225595039468 1
gene  1 2 510 0.9615634619613652 0 5860.0 0.9615634619613652 1
gene  2 628 1280 -15.200488940707723 0 5904.0 -15.200488940707723 1
gene  2 1280 927 -3.741880198513438 0 5905.0 -3.741880198513438 1
gene  3 1 412 5.288661347358578 0 6172.0 5.288661347358578 1
gene  3 522 590 7.780434894911453 0 6331.0 7.780434894911453 1
gene  3 34 1421 -1.2515003992559106 0 6570.0 -1.2515003992559106 1
gene  3 1421 426 -1.2116705870373812 0 6571.0 -1.2116705870373812 1
gene  2 1146 440 -0.41015698705150705 0 6621.0 -0.41015698705150705 1
gene  3 176 1421 1.084853714062228 0 6692.0 1.084853714062228 1
gene  2 1123 1445 -2.046229774791729 0 6707.0 -2.046229774791729 1
gene  2 1445 293 -3.6922091234853824 0 6708.0 -3.6922091234853824 1
gene  2 21 1466 -1.1678191611207183 0 6792.0 -1.1678191611207183 1
gene  3 1466 4 1.5784355266763026 0 6793.0 1.5784355266763026 1
gene  3 590 510 0.3135567676291944 0 6819.0 0.3135567676291944 1
gene  3 7 1486 0.6921660166137128 0 6892.0 0.6921660166137128 1
gene  3 1486 4 -8.745281924999604 0 6893.0 -8.745281924999604 1
gene  1 628 1513 5.365185868514158 0 7014.0 5.365185868514158 1
gene  1 1513 7 0.5429740228045393 0 7015.0 0.5429740228045393 1
gene  1 705 1146 7.577128828981882 0 7153.0 7.577128828981882 1
genomeend 1
/* Organism # 002 Fitness:  0,000 Error:  0,000                      */
genomestart  2
trait 1 0.48943095868929576 0.32181902849234306 0.0 0.3699575824465779 0.15286354174562805 0.0 0.3900313924978889 0.08915491342848193 
trait 2 1.1617727389316044 0.03170152795957956 0.08181549485392925 0.0 0.0 0.15183219442820362 0.0 1.0154089906758657 
trait 3 0.9887508490235056 1.163661137475743 1.159515770475911 2.385934785236945 0.8442597926616394 0.0 1.1227100899246192 0.01220984022418059 
node 1 1 1 1
node 2 1 1 1
node 3 1 1 3
node 4 3 0 2
node 5 1 0 2
node 7 2 0 0
node 10 2 0 0
node 21 1 0 0
node 34 1 0 0
node 176 1 0 0
node 236 3 0 0
node 244 3 0 0
node 293 1 0 0
node 412 1 0 0
node 426 3 0 0
node 440 1 0 0
node 466 1 0 0
node 484 1 0 0
node 502 1 0 0
node 510 1 0 0
node 522 1 0 0
node 590 1 0 0
node 611 1 0 0
node 628 1 0 0
node 705 1 0 0
node 887 1 0 0
node 927 1 0 0
node 943 1 0 0
node 1123 1 0 0
node 1146 1 0 0
node 1161 3 0 0
node 1216 1 0 0
node 1280 1 0 0
node 1421 1 0 0
node 1445 1 0 0
node 1466 1 0 0
node 1486 1 0 0
node 1513 1 0 0
gene  2 1 4 -1.1597069517798748 0 1.0 -1.1597069517798748 1
gene  2 2 4 -7.451156086909811 0 2.0 -7.451156086909811 1
gene  2 3 4 -2.344846792881941 0 3.0 -2.344846792881941 1
gene  2 1 5 7.092423763182765 0 4.0 7.092423763182765 1
gene  2 2 5 -4.524378016634073 0 5.0 -4.524378016634073 1
gene  2 3 5 -0.940756720529015 0 6.0 -0.940756720529015 1
gene  1 1 7 3.7788813838002935 0 13.0 3.7788813838002935 1
gene  3 7 4 -4.728599849480508 0 14.0 -4.728599849480508 1
gene  1 5 7 -3.3433864994359537 0 17.0 -3.3433864994359537 1
gene  2 2 10 0.09778251231176704 0 26.0 0.09778251231176704 1
gene  1 10 4 -2.754065872702072 0 27.0 -2.754065872702072 1
gene  2 2 21 -2.545167218567192 0 83.0 -2.545167218567192 0
gene  2 21 4 -10.384095568283753 0 84.0 -10.384095568283753 1
gene  2 1 34 2.3215192072205526 0 140.0 2.3215192072205526 1
gene  2 34 5 3.0639670043692546 0 141.0 3.0639670043692546 1
gene  1 34 21 5.400037612948965 0 333.0 5.400037612948965 1
gene  2 1 10 -8.565035387815577 0 502.0 -8.565035387815577 1
gene  2 10 5 8.294352314632999 0 544.0 8.294352314632999 1
gene  3 3 7 6.195261885561776 0 744.0 6.195261885561776 1
gene  1 34 176 -8.144120732609592 0 769.0 -8.144120732609592 1
gene  1 176 21 -4.7508342364581555 0 770.0 -4.7508342364581555 1
gene  2 1 176 0.5911638788469431 0 830.0 0.5911638788469431 1
gene  1 2 7 -2.6466136322257676 0 942.0 -2.6466136322257676 1
gene  1 1 236 -1.7185655905680686 0 1009.0 -1.7185655905680686 1
gene  1 236 5 3.58652315401146 0 1010.0 3.58652315401146 1
gene  1 5 244 -0.3150105064017277 0 1042.0 -0.3150105064017277 1
gene  1 244 7 2.5078051741502954 0 1043.0 2.5078051741502954 1
gene  2 2 293 -2.997057455796785 0 1235.0 -2.997057455796785 1
gene  2 293 21 -2.465965362902897 0 1236.0 -2.465965362902897 1
gene  2 7 293 8.745636905349361 0 1614.0 8.745636905349361 1
gene  1 236 10 2.2735537122632756 0 1734.0 2.2735537122632756 1
gene  2 2 412 -6.7027224963167695 0 1770.0 -6.7027224963167695 1
gene  2 412 10 -2.993050077179367 0 1771.0 -2.993050077179367 1
gene  1 5 426 0.2742515586269598 0 1846.0 0.2742515586269598 1
gene  1 426 7 -4.093977123910733 0 1847.0 -4.093977123910733 1
gene  2 244 293 9.211139185804115 0 1883.0 9.211139185804115 1
gene  2 2 440 -0.08589137438276939 0 1903.0 -0.08589137438276939 1
gene  2 440 412 2.4850230347066273 0 1904.0 2.4850230347066273 1
gene  1 1 244 -0.9625586717391188 0 1984.0 -0.9625586717391188 1
gene  1 1 466 -2.0593306871449233 0 2026.0 -2.0593306871449233 1
gene  1 466 7 -1.1820954592929573 0 2027.0 -1.1820954592929573 1
gene  2 3 293 3.2531099913227597 0 2100.0 3.2531099913227597 1
gene  1 1 484 -3.988508228212797 0 2116.0 -3.988508228212797 1
gene  1 484 244 -5.56569123567376 0 2117.0 -5.56569123567376 1
gene  1 466 5 -6.345019887348555 0 2153.0 -6.345019887348555 1
gene  1 236 502 -4.291318838841159 0 2189.0 -4.291318838841159 1
gene  3 502 10 -6.621476345314316 0 2190.0 -6.621476345314316 0
gene  3 34 426 7.1437043274131415 0 2213.0 7.1437043274131415 1
gene  1 502 510 -3.771442314982427 0 2224.0 -3.771442314982427 1
gene  1 510 10 1.7072637072140675 0 2225.0 1.7072637072140675 1
gene  3 440 21 -3.0269650367106453 0 2256.0 -3.0269650367106453 1
gene  2 34 522 -4.017814245328251 0 2274.0 -4.017814245328251 1
gene  3 522 426 5.03499959341307 0 2275.0 5.03499959341307 1
gene  2 466 510 -5.762449681252617 0 2446.0 -5.762449681252617 1
gene  2 236 293 0.010887574951828238 0 2572.0 0.010887574951828238 1
gene  2 412 7 -7.847508576306308 0 2579.0 -7.847508576306308 1
gene  1 466 590 0.35250485298418144 0 2611.0 0.35250485298418144 1
gene  1 590 5 2.2165521189956863 0 2612.0 2.2165521189956863 1
gene  1 34 611 -3.7194900592952282 0 2696.0 -3.7194900592952282 1
gene  1 611 176 -1.7521491247815986 0 2697.0 -1.7521491247815986 1
gene  3 10 611 -0.7339010128408419 0 2728.0 -0.7339010128408419 1
gene  2 412 244 -8.010603471219428 0 2751.0 -8.010603471219428 1
gene  1 5 628 -1.6918457165258047 0 2769.0 -1.6918457165258047 1
gene  1 628 7 -3.77747241136138 0 2770.0 -3.77747241136138 1
gene  2 34 705 -1.5502564812407917 0 3123.0 -1.5502564812407917 1
gene  2 705 522 -0.3019747923545637 0 3124.0 -0.3019747923545637 1
gene  1 590 176 -6.761978975694328 0 3271.0 -6.761978975694328 1
gene  1 236 440 -0.7309159837204778 0 3959.0 -0.7309159837204778 1
gene  1 484 887 0.8714280536226842 0 3977.0 0.8714280536226842 1
gene  1 887 244 -2.6875304082851836 0 3978.0 -2.6875304082851836 1
gene  2 611 484 0.5509985454478716 0 3993.0 0.5509985454478716 1
gene  2 5 611 2.9411514103212695 0 4021.0 2.9411514103212695 1
gene  2 611 21 -1.1157132175434006 0 4166.0 -1.1157132175434006 1
gene  2 2 927 0.7200565222091442 0 4190.0 0.7200565222091442 1
gene  2 927 21 -3.520905359873248 0 4191.0 -3.520905359873248 1
gene  1 236 943 -1.8331326199744915 0 4259.0 -1.8331326199744915 1
gene  1 943 10 1.0886841846458375 0 4260.0 1.0886841846458375 1
gene  2 943 293 0.3800773717809236 0 4285.0 0.3800773717809236 1
gene  1 176 426 -2.6865735454587574 0 4524.0 -2.6865735454587574 1
gene  2 293 927 1.894644175963028 0 4598.0 1.894644175963028 1
gene  2 705 611 -1.4934875319599987 0 4636.0 -1.4934875319599987 1
gene  1 466 21 -3.926480170194301 0 4649.0 -3.926480170194301 1
gene  3 943 705 12.705308606094848 0 4696.0 12.705308606094848 1
gene  2 236 1123 13.313696658236896 0 5156.0 13.313696658236896 1
gene  2 1123 293 -2.57348313907901 0 5157.0 -2.57348313907901 1
gene  1 34 927 -1.6978901877578294 0 5208.0 -1.6978901877578294 1
gene  3 412 426 -0.24726430120761173 0 5253.0 -0.24726430120761173 1
gene  1 236 1146 9.468616058793417 0 5301.0 9.468616058793417 1
gene  1 1146 10 -4.995270822244416 0 5302.0 -4.995270822244416 1
gene  1 611 426 1.1701580814634402 0 5311.0 1.1701580814634402 1
gene  2 628 927 -8.19036229664976 0 5356.0 -8.19036229664976 1
gene  1 176 1161 -4.020324039281064 0 5366.0 -4.020324039281064 1
gene  1 1161 426 -1.5329331147453966 0 5367.0 -1.5329331147453966 1
gene  1 3 426 6.7971282947774965 0 5417.0 6.7971282947774965 1
gene  3 502 466 -2.36169342511107 0 5479.0 -2.36169342511107 1
gene  1 236 887 -0.290061371335559 0 5520.0 -0.290061371335559 1
gene  2 943 5 -0.7307079877714371 0 5546.0 -0.7307079877714371 1
gene  2 502 1146 -0.09444024465850753 0 5563.0 -0.09444024465850753 1
gene  2 2 1216 4.655849146020742 0 5598.0 4.655849146020742 1
gene  2 1216 5 5.601015917817073 0 5599.0 5.601015917817073 1
gene  1 628 887 -1.1750131154407057 0 5627.0 -1.1750131154407057 1
gene  1 2 510 2.698748190519015 0 5860.0 2.698748190519015 1
gene  2 628 1280 -13.368131309114025 0 5904.0 -13.368131309114025 1
gene  2 1280 927 -0.33149286648299386 0 5905.0 -0.33149286648299386 1
gene  3 1 412 2.983911562693281 0 6172.0 2.983911562693281 1
gene  3 522 590 3.138810253582004 0 6331.0 3.138810253582004 1
gene  3 34 1421 -0.8747571972239351 0 6570.0 -0.8747571972239351 1
gene  3 1421 426 1.0526633410933353 0 6571.0 1.0526633410933353 1
gene  2 1146 440 -0.12956479264248116 0 6621.0 -0.12956479264248116 1
gene  3 176 1421 0.009827792753936748 0 6692.0 0.009827792753936748 1
gene  2 1123 1445 -1.2194953852854469 0 6707.0 -1.2194953852854469 1
gene  2 1445 293 -4.804275716294377 0 6708.0 -4.804275716294377 1
gene  2 21 1466 -2.00483997495156 0 6792.0 -2.00483997495156 1
gene  3 1466 4 -2.4840611829282926 0 6793.0 -2.4840611829282926 1
gene  3 590 510 -1.759534676058944 0 6819.0 -1.759534676058944 1
gene  3 7 1486 0.1934451073806559 0 6892.0 0.1934451073806559 1
gene  3 1486 4 -6.501158663038703 0 6893.0 -6.501158663038703 1
gene  1 628 1513 4.076523682310911 0 7014.0 4.076523682310911 1
gene  1 1513 7 -0.012164229549466388 0 7015.0 -0.012164229549466388 1
gene  1 705 1146 7.498986173827458 0 7153.0 7.498986173827458 1
genomeend 2
/*-------------------------------------------------------------------*/
/* Species # 372         : (size= 007) (AvfFit= 0,845) (Age= 18,000)  */
/*-------------------------------------------------------------------*/
/* Organism # 003 Fitness:  0,000 Error:  0,000                      */
genomestart  3
trait 1 0.6489620646775441 0.0 0.0 0.0 0.15286354174562805 0.0 0.3900313924978889 0.35661965371392773 
trait 2 1.074811330873656 0.9171019701119769 0.6506021312870152 1.6640528422322318 1.3013589191270647 0.6536908226448365 0.12809857777412514 0.11511788893623909 
trait 3 1.2950104924035806 0.13530548914241503 1.3276745383119515 0.8632268314171132 0.4221298963308197 0.07327896901387221 0.0 1.426617088196195 
node 1 1 1 1
node 2 1 1 1
node 3 1 1 3
node 4 3 0 2
node 5 1 0 2
node 7 2 0 0
node 10 2 0 0
node 21 1 0 0
node 34 1 0 0
node 176 1 0 0
node 236 3 0 0
node 244 2 0 0
node 293 3 0 0
node 412 1 0 0
node 426 1 0 0
node 440 1 0 0
node 466 1 0 0
node 484 1 0 0
node 502 1 0 0
node 510 1 0 0
node 522 1 0 0
node 590 1 0 0
node 611 1 0 0
node 628 1 0 0
node 705 1 0 0
node 887 1 0 0
node 927 1 0 0
node 943 1 0 0
node 1123 1 0 0
node 1162 1 0 0
node 1176 1 0 0
node 1246 1 0 0
node 1355 1 0 0
node 1423 1 0 0
node 1477 1 0 0
node 1484 1 0 0
gene  2 1 4 -18.555816062950946 0 1.0 -18.555816062950946 0
gene  2 2 4 0.4279810551168246 0 2.0 0.4279810551168246 1
gene  2 3 4 3.047492348018916 0 3.0 3.047492348018916 1
gene  2 1 5 -5.84132836031077 0 4.0 -5.84132836031077 1
gene  2 2 5 0.2105232316099115 0 5.0 0.2105232316099115 1
gene  2 3 5 0.6676877685591156 0 6.0 0.6676877685591156 1
gene  1 1 7 -2.9139084224972116 0 13.0 -2.9139084224972116 1
gene  3 7 4 -2.617555960715956 0 14.0 -2.617555960715956 1
gene  1 5 7 -0.0745668549499191 0 17.0 -0.0745668549499191 1
gene  2 2 10 1.9403207455016536 0 26.0 1.9403207455016536 1
gene  1 10 4 -1.622889714867529 0 27.0 -1.622889714867529 1
gene  2 2 21 -7.173632063571972 0 83.0 -7.173632063571972 1
gene  2 21 4 -3.0594566600749946 0 84.0 -3.0594566600749946 1
gene  2 1 34 -4.512173372806117 0 140.0 -4.512173372806117 1
gene  2 34 5 -1.8040270661520719 0 141.0 -1.8040270661520719 1
gene  1 34 21 4.598413588732884 0 333.0 4.598413588732884 1
gene  2 1 10 -0.7940180097344843 0 502.0 -0.7940180097344843 1
gene  2 10 5 -2.547795324745927 0 544.0 -2.547795324745927 1
gene  3 3 7 7.3564855527606055 0 744.0 7.3564855527606055 1
gene  1 34 176 2.6672136743857235 0 769.0 2.6672136743857235 1
gene  1 176 21 -1.4506557501876385 0 770.0 -1.4506557501876385 1
gene  2 1 176 3.05101831003459 0 830.0 3.05101831003459 1
gene  2 2 7 1.0940651462257125 0 942.0 1.0940651462257125 1
gene  1 1 236 6.058922156665968 0 1009.0 6.058922156665968 1
gene  1 236 5 -0.8638974068347409 0 1010.0 -0.8638974068347409 1
gene  1 5 244 19.720869613729334 0 1042.0 19.720869613729334 1
gene  1 244 7 4.556816428063852 0 1043.0 4.556816428063852 1
gene  2 2 293 -0.1341190988392843 0 1235.0 -0.1341190988392843 1
gene  2 293 21 -1.2432231980178752 0 1236.0 -1.2432231980178752 1
gene  2 7 293 0.4413339122765513 0 1614.0 0.4413339122765513 1
gene  1 236 10 -0.929297621988288 0 1734.0 -0.929297621988288 1
gene  1 2 412 2.3078448530617934 0 1770.0 2.3078448530617934 1
gene  2 412 10 -6.784771680795713 0 1771.0 -6.784771680795713 1
gene  1 5 426 1.1150454204547902 0 1846.0 1.1150454204547902 1
gene  1 426 7 0.6568600812913628 0 1847.0 0.6568600812913628 0
gene  2 244 293 -1.5042992861091558 0 1883.0 -1.5042992861091558 1
gene  2 2 440 13.940870305653089 0 1903.0 13.940870305653089 1
gene  1 440 412 -3.9568573863313645 0 1904.0 -3.9568573863313645 1
gene  1 1 244 -1.2896053488776478 0 1984.0 -1.2896053488776478 1
gene  1 1 466 22.384695134354843 0 2026.0 22.384695134354843 1
gene  1 466 7 2.306300022645414 0 2027.0 2.306300022645414 1
gene  2 3 293 4.865412831275622 0 2100.0 4.865412831275622 1
gene  1 1 484 2.4368140408432115 0 2116.0 2.4368140408432115 1
gene  1 484 244 -1.3646246293631978 0 2117.0 -1.3646246293631978 1
gene  1 466 5 4.672518671256958 0 2153.0 4.672518671256958 1
gene  1 236 502 1.37290291467864 0 2189.0 1.37290291467864 1
gene  3 502 10 2.921813255658515 0 2190.0 2.921813255658515 1
gene  3 34 426 1.3604292955412784 0 2213.0 1.3604292955412784 1
gene  1 502 510 -1.7858037873226846 0 2224.0 -1.7858037873226846 1
gene  1 510 10 -0.6435643692957089 0 2225.0 -0.6435643692957089 1
gene  3 440 21 -5.808833179736353 0 2256.0 -5.808833179736353 1
gene  2 34 522 -0.7779390722793658 0 2274.0 -0.7779390722793658 1
gene  3 522 426 -0.7882525592643344 0 2275.0 -0.7882525592643344 1
gene  2 466 510 0.8215294630468694 0 2446.0 0.8215294630468694 1
gene  2 236 293 -7.077780310187986 0 2572.0 -7.077780310187986 1
gene  2 412 7 -4.618487171203124 0 2579.0 -4.618487171203124 1
gene  1 466 590 8.179955329975531 0 2611.0 8.179955329975531 1
gene  1 590 5 4.140153418937504 0 2612.0 4.140153418937504 1
gene  1 34 611 -5.224294857450531 0 2696.0 -5.224294857450531 1
gene  1 611 176 -0.2725687767192895 0 2697.0 -0.2725687767192895 1
gene  3 10 611 -1.8845195327861368 0 2728.0 -1.8845195327861368 1
gene  2 412 244 2.2124903622564362 0 2751.0 2.2124903622564362 1
gene  1 5 628 1.6635863529649395 0 2769.0 1.6635863529649395 1
gene  1 628 7 -2.2931000197113063 0 2770.0 -2.2931000197113063 0
gene  2 34 705 5.2942364271603175 0 3123.0 5.2942364271603175 0
gene  2 705 522 -1.2414526631109082 0 3124.0 -1.2414526631109082 1
gene  1 590 176 -1.4696608979442276 0 3271.0 -1.4696608979442276 1
gene  1 236 440 -0.49658701664517235 0 3959.0 -0.49658701664517235 1
gene  1 484 887 -0.6593165356422163 0 3977.0 -0.6593165356422163 1
gene  1 887 244 0.8549855908999476 0 3978.0 0.8549855908999476 1
gene  2 611 484 2.5266995750297423 0 3993.0 2.5266995750297423 1
gene  2 5 611 0.6000461650422886 0 4021.0 0.6000461650422886 1
gene  2 611 21 8.543609021067367 0 4166.0 8.543609021067367 1
gene  2 2 927 9.838729566160453 0 4190.0 9.838729566160453 1
gene  2 927 21 5.118752896667871 0 4191.0 5.118752896667871 1
gene  1 236 943 1.5882334843965153 0 4259.0 1.5882334843965153 1
gene  1 943 10 7.490946204824346 0 4260.0 7.490946204824346 1
gene  3 943 293 -5.243588891296364 0 4285.0 -5.243588891296364 1
gene  1 176 426 2.5830400397131155 0 4524.0 2.5830400397131155 1
gene  2 293 927 0.3835558489216091 0 4598.0 0.3835558489216091 1
gene  2 705 611 3.867968803270931 0 4636.0 3.867968803270931 1
gene  1 466 21 -3.471320443511697 0 4649.0 -3.471320443511697 1
gene  3 943 705 -8.04709430632219 0 4696.0 -8.04709430632219 1
gene  2 236 1123 3.202880354397033 0 5156.0 3.202880354397033 1
gene  2 1123 293 -2.158899490945608 0 5157.0 -2.158899490945608 1
gene  1 34 927 -3.699460750520062 0 5208.0 -3.699460750520062 1
gene  3 412 426 2.3840764230774 0 5253.0 2.3840764230774 1
gene  1 1 1162 8.397898524748502 0 5368.0 8.397898524748502 1
gene  1 1162 236 1.870617627103086 0 5369.0 1.870617627103086 1
gene  1 1162 21 -0.43831488388303164 0 5410.0 -0.43831488388303164 1
gene  1 628 1176 0.9125617795815629 0 5418.0 0.9125617795815629 1
gene  1 1176 7 2.031382250356178 0 5419.0 2.031382250356178 1
gene  3 34 7 0.355638738238821 0 5474.0 0.355638738238821 1
gene  2 466 34 -2.235764049960185 0 5587.0 -2.235764049960185 1
gene  2 466 943 3.011297304606206 0 5691.0 3.011297304606206 1
gene  2 611 1176 0.6652487901670651 0 5738.0 0.6652487901670651 1
gene  1 943 1246 -1.7190039643874662 0 5753.0 -1.7190039643874662 1
gene  1 1246 10 1.4781378199462851 0 5754.0 1.4781378199462851 1
gene  3 236 590 0.1762271862448208 0 5919.0 0.1762271862448208 1
gene  1 440 943 0.7207940962186505 0 5962.0 0.7207940962186505 1
gene  2 1246 5 -2.580917518720476 0 6180.0 -2.580917518720476 1
gene  2 522 887 0.9011953727345203 0 6217.0 0.9011953727345203 1
gene  2 2 1355 3.01288870750564 0 6258.0 3.01288870750564 1
gene  2 1355 21 0.6747646401156748 0 6259.0 0.6747646401156748 1
gene  3 1355 943 -0.8635699573180735 0 6416.0 -0.8635699573180735 1
gene  2 440 502 -0.6046558614779642 0 6522.0 -0.6046558614779642 1
gene  1 943 1423 0.23429015880651094 0 6585.0 -0.26570984119348906 1
gene  1 1423 1246 -2.224724966470754 0 6586.0 -0.7090499763916542 1
gene  2 5 887 -4.490367982833949 0 6616.0 -4.490367982833949 1
gene  1 440 466 2.6346698207392216 0 6678.0 2.6346698207392216 1
gene  1 484 628 9.68888829068127 0 6716.0 9.68888829068127 1
gene  1 3 943 4.774793192259503 0 6730.0 4.774793192259503 1
gene  2 3 522 6.33710704639808 0 6774.0 6.33710704639808 1
gene  1 502 927 -2.2249778315918123 0 6786.0 -2.2249778315918123 1
gene  2 236 34 -8.478231200325629 0 6836.0 -8.478231200325629 1
gene  2 2 1477 1.0 0 6852.0 0.0 1
gene  2 1477 7 1.0940651462257125 0 6853.0 0.0 1
gene  2 34 1484 1.0 0 6888.0 0.0 1
gene  2 1484 705 5.2942364271603175 0 6889.0 0.0 1
gene  3 1176 1477 3.7768039555248945 0 6910.0 0.0 1
gene  3 293 4 -3.135063372861592 0 6942.0 -3.135063372861592 1
gene  1 887 1176 1.7590056451142921 0 6985.0 1.7590056451142921 1
genomeend 3
/* Organism # 004 Fitness:  0,000 Error:  0,000                      */
genomestart  4
trait 1 0.6489620646775441 0.0 0.0 0.0 0.15286354174562805 0.0 0.3900313924978889 0.35661965371392773 
trait 2 1.074811330873656 0.9171019701119769 0.6506021312870152 1.6640528422322318 1.3013589191270647 0.6536908226448365 0.12809857777412514 0.11511788893623909 
trait 3 1.2950104924035806 0.13530548914241503 1.3276745383119515 0.8632268314171132 0.4221298963308197 0.07327896901387221 0.0 1.426617088196195 
node 1 1 1 1
node 2 1 1 1
node 3 1 1 3
node 4 3 0 2
node 5 1 0 2
node 7 2 0 0
node 10 2 0 0
node 21 1 0 0
node 34 1 0 0
node 176 1 0 0
node 236 3 0 0
node 244 2 0 0
node 293 3 0 0
node 412 1 0 0
node 426 1 0 0
node 440 1 0 0
node 466 1 0 0
node 484 1 0 0
node 502 1 0 0
node 510 1 0 0
node 522 1 0 0
node 590 1 0 0
node 611 1 0 0
node 628 1 0 0
node 705 1 0 0
node 887 1 0 0
node 927 1 0 0
node 943 1 0 0
node 1123 1 0 0
node 1162 1 0 0
node 1176 1 0 0
node 1246 1 0 0
node 1355 1 0 0
node 1423 1 0 0
node 1477 1 0 0
node 1484 1 0 0
gene  2 1 4 -18.555816062950946 0 1.0 -18.555816062950946 0
gene  2 2 4 0.4279810551168246 0 2.0 0.4279810551168246 1
gene  2 3 4 3.047492348018916 0 3.0 3.047492348018916 1
gene  2 1 5 -5.84132836031077 0 4.0 -5.84132836031077 1
gene  2 2 5 0.2105232316099115 0 5.0 0.2105232316099115 1
gene  2 3 5 0.6676877685591156 0 6.0 0.6676877685591156 1
gene  1 1 7 -2.9139084224972116 0 13.0 -2.9139084224972116 1
gene  3 7 4 -2.617555960715956 0 14.0 -2.617555960715956 1
gene  1 5 7 -0.0745668549499191 0 17.0 -0.0745668549499191 1
gene  2 2 10 1.9403207455016536 0 26.0 1.9403207455016536 1
gene  1 10 4 -1.622889714867529 0 27.0 -1.622889714867529 1
gene  2 2 21 -7.173632063571972 0 83.0 -7.173632063571972 1
gene  2 21 4 -3.0594566600749946 0 84.0 -3.0594566600749946 1
gene  2 1 34 -4.512173372806117 0 140.0 -4.512173372806117 1
gene  2 34 5 -1.8040270661520719 0 141.0 -1.8040270661520719 1
gene  1 34 21 4.598413588732884 0 333.0 4.598413588732884 1
gene  2 1 10 -0.7940180097344843 0 502.0 -0.7940180097344843 1
gene  2 10 5 -2.547795324745927 0 544.0 -2.547795324745927 1
gene  3 3 7 7.3564855527606055 0 744.0 7.3564855527606055 1
gene  1 34 176 2.6672136743857235 0 769.0 2.6672136743857235 1
gene  1 176 21 -1.4506557501876385 0 770.0 -1.4506557501876385 1
gene  2 1 176 3.05101831003459 0 830.0 3.05101831003459 1
gene  2 2 7 1.0940651462257125 0 942.0 1.0940651462257125 1
gene  1 1 236 6.058922156665968 0 1009.0 6.058922156665968 1
gene  1 236 5 -0.8638974068347409 0 1010.0 -0.8638974068347409 1
gene  1 5 244 19.720869613729334 0 1042.0 19.720869613729334 1
gene  1 244 7 4.556816428063852 0 1043.0 4.556816428063852 1
gene  2 2 293 -0.1341190988392843 0 1235.0 -0.1341190988392843 1
gene  2 293 21 -1.2432231980178752 0 1236.0 -1.2432231980178752 1
gene  2 7 293 0.4413339122765513 0 1614.0 0.4413339122765513 1
gene  1 236 10 -0.929297621988288 0 1734.0 -0.929297621988288 1
gene  1 2 412 2.3078448530617934 0 1770.0 2.3078448530617934 1
gene  2 412 10 -6.784771680795713 0 1771.0 -6.784771680795713 1
gene  1 5 426 1.1150454204547902 0 1846.0 1.1150454204547902 1
gene  1 426 7 0.6568600812913628 0 1847.0 0.6568600812913628 0
gene  2 244 293 -1.5042992861091558 0 1883.0 -1.5042992861091558 1
gene  2 2 440 13.940870305653089 0 1903.0 13.940870305653089 1
gene  1 440 412 -3.9568573863313645 0 1904.0 -3.9568573863313645 1
gene  1 1 244 -1.2896053488776478 0 1984.0 -1.2896053488776478 1
gene  1 1 466 22.384695134354843 0 2026.0 22.384695134354843 1
gene  1 466 7 2.306300022645414 0 2027.0 2.306300022645414 1
gene  2 3 293 4.865412831275622 0 2100.0 4.865412831275622 1
gene  1 1 484 2.4368140408432115 0 2116.0 2.4368140408432115 1
gene  1 484 244 -1.3646246293631978 0 2117.0 -1.3646246293631978 1
gene  1 466 5 4.672518671256958 0 2153.0 4.672518671256958 1
gene  1 236 502 1.37290291467864 0 2189.0 1.37290291467864 1
gene  3 502 10 2.921813255658515 0 2190.0 2.921813255658515 1
gene  3 34 426 1.3604292955412784 0 2213.0 1.3604292955412784 1
gene  1 502 510 -1.7858037873226846 0 2224.0 -1.7858037873226846 1
gene  1 510 10 -0.6435643692957089 0 2225.0 -0.6435643692957089 1
gene  3 440 21 -5.808833179736353 0 2256.0 -5.808833179736353 1
gene  2 34 522 -0.7779390722793658 0 2274.0 -0.7779390722793658 1
gene  2 522 426 -0.7882525592643344 0 2275.0 -0.7882525592643344 1
gene  2 466 510 0.8215294630468694 0 2446.0 0.8215294630468694 1
gene  2 236 293 -7.077780310187986 0 2572.0 -7.077780310187986 1
gene  2 412 7 -4.618487171203124 0 2579.0 -4.618487171203124 1
gene  1 466 590 8.179955329975531 0 2611.0 8.179955329975531 1
gene  1 590 5 4.140153418937504 0 2612.0 4.140153418937504 1
gene  1 34 611 -5.224294857450531 0 2696.0 -5.224294857450531 1
gene  1 611 176 -0.2725687767192895 0 2697.0 -0.2725687767192895 1
gene  3 10 611 -1.8845195327861368 0 2728.0 -1.8845195327861368 1
gene  2 412 244 2.2124903622564362 0 2751.0 2.2124903622564362 1
gene  1 5 628 1.6635863529649395 0 2769.0 1.6635863529649395 1
gene  1 628 7 -2.2931000197113063 0 2770.0 -2.2931000197113063 0
gene  2 34 705 5.2942364271603175 0 3123.0 5.2942364271603175 0
gene  2 705 522 -1.2414526631109082 0 3124.0 -1.2414526631109082 1
gene  1 590 176 -1.4696608979442276 0 3271.0 -1.4696608979442276 1
gene  1 236 440 -0.49658701664517235 0 3959.0 -0.49658701664517235 1
gene  1 484 887 -0.6593165356422163 0 3977.0 -0.6593165356422163 1
gene  1 887 244 0.8549855908999476 0 3978.0 0.8549855908999476 1
gene  2 611 484 2.5266995750297423 0 3993.0 2.5266995750297423 1
gene  2 5 611 0.6000461650422886 0 4021.0 0.6000461650422886 1
gene  2 611 21 8.543609021067367 0 4166.0 8.543609021067367 1
gene  2 2 927 9.838729566160453 0 4190.0 9.838729566160453 1
gene  2 927 21 5.118752896667871 0 4191.0 5.118752896667871 1
gene  1 236 943 1.5882334843965153 0 4259.0 1.5882334843965153 1
gene  1 943 10 7.490946204824346 0 4260.0 7.490946204824346 1
gene  3 943 293 -5.243588891296364 0 4285.0 -5.243588891296364 1
gene  1 176 426 2.5830400397131155 0 4524.0 2.5830400397131155 1
gene  2 293 927 0.3835558489216091 0 4598.0 0.3835558489216091 1
gene  2 705 611 3.867968803270931 0 4636.0 3.867968803270931 1
gene  1 466 21 -3.471320443511697 0 4649.0 -3.471320443511697 1
gene  3 943 705 -8.04709430632219 0 4696.0 -8.04709430632219 1
gene  2 236 1123 3.202880354397033 0 5156.0 3.202880354397033 1
gene  2 1123 293 -2.158899490945608 0 5157.0 -2.158899490945608 1
gene  1 34 927 -3.699460750520062 0 5208.0 -3.699460750520062 1
gene  3 412 426 2.3840764230774 0 5253.0 2.3840764230774 1
gene  1 1 1162 8.397898524748502 0 5368.0 8.397898524748502 1
gene  1 1162 236 1.870617627103086 0 5369.0 1.870617627103086 1
gene  1 1162 21 -0.43831488388303164 0 5410.0 -0.43831488388303164 1
gene  1 628 1176 0.9125617795815629 0 5418.0 0.9125617795815629 1
gene  1 1176 7 2.031382250356178 0 5419.0 2.031382250356178 1
gene  3 34 7 0.355638738238821 0 5474.0 0.355638738238821 1
gene  2 466 34 -2.235764049960185 0 5587.0 -2.235764049960185 1
gene  2 466 943 3.011297304606206 0 5691.0 3.011297304606206 1
gene  2 611 1176 0.6652487901670651 0 5738.0 0.6652487901670651 1
gene  1 943 1246 -1.7190039643874662 0 5753.0 -1.7190039643874662 1
gene  1 1246 10 1.4781378199462851 0 5754.0 1.4781378199462851 1
gene  3 236 590 0.1762271862448208 0 5919.0 0.1762271862448208 1
gene  1 440 943 0.7207940962186505 0 5962.0 0.7207940962186505 1
gene  2 1246 5 -2.580917518720476 0 6180.0 -2.580917518720476 1
gene  2 522 887 0.9011953727345203 0 6217.0 0.9011953727345203 1
gene  2 2 1355 3.01288870750564 0 6258.0 3.01288870750564 1
gene  2 1355 21 0.6747646401156748 0 6259.0 0.6747646401156748 1
gene  3 1355 943 -0.8635699573180735 0 6416.0 -0.8635699573180735 1
gene  2 440 502 -0.6046558614779642 0 6522.0 -0.6046558614779642 1
gene  1 943 1423 0.23429015880651094 0 6585.0 -0.26570984119348906 1
gene  1 1423 1246 -2.224724966470754 0 6586.0 -0.7090499763916542 1
gene  2 5 887 -4.490367982833949 0 6616.0 -4.490367982833949 1
gene  1 440 466 2.6346698207392216 0 6678.0 2.6346698207392216 1
gene  1 484 628 9.68888829068127 0 6716.0 9.68888829068127 1
gene  1 3 943 4.774793192259503 0 6730.0 4.774793192259503 1
gene  2 3 522 6.33710704639808 0 6774.0 6.33710704639808 1
gene  1 502 927 -2.2249778315918123 0 6786.0 -2.2249778315918123 1
gene  2 236 34 -8.478231200325629 0 6836.0 -8.478231200325629 1
gene  2 2 1477 1.0 0 6852.0 0.0 1
gene  2 1477 7 1.0940651462257125 0 6853.0 0.0 1
gene  2 34 1484 1.0 0 6888.0 0.0 1
gene  2 1484 705 5.2942364271603175 0 6889.0 0.0 1
gene  3 1176 1477 3.7768039555248945 0 6910.0 0.0 1
gene  3 293 4 -3.135063372861592 0 6942.0 -3.135063372861592 1
gene  1 887 1176 1.7590056451142921 0 6985.0 1.7590056451142921 1
genomeend 4
/* Organism # 005 Fitness:  0,000 Error:  0,000                      */
genomestart  5
trait 1 0.6489620646775441 0.0 0.0 0.0 0.15286354174562805 0.0 0.3900313924978889 0.35661965371392773 
trait 2 1.074811330873656 0.9171019701119769 0.6506021312870152 1.6640528422322318 1.3013589191270647 0.6536908226448365 0.12809857777412514 0.11511788893623909 
trait 3 1.2950104924035806 0.13530548914241503 1.3276745383119515 0.8632268314171132 0.4221298963308197 0.07327896901387221 0.0 1.426617088196195 
node 1 1 1 1
node 2 1 1 1
node 3 1 1 3
node 4 3 0 2
node 5 1 0 2
node 7 2 0 0
node 10 2 0 0
node 21 1 0 0
node 34 1 0 0
node 176 1 0 0
node 236 3 0 0
node 244 2 0 0
node 293 3 0 0
node 412 1 0 0
node 426 1 0 0
node 440 1 0 0
node 466 1 0 0
node 484 1 0 0
node 502 1 0 0
node 510 1 0 0
node 522 1 0 0
node 590 1 0 0
node 611 1 0 0
node 628 1 0 0
node 705 1 0 0
node 887 1 0 0
node 927 1 0 0
node 943 1 0 0
node 1123 1 0 0
node 1162 1 0 0
node 1176 1 0 0
node 1246 1 0 0
node 1355 1 0 0
node 1423 1 0 0
node 1477 1 0 0
node 1484 1 0 0
gene  2 1 4 -18.4555624254599 0 1.0 -18.4555624254599 0
gene  2 2 4 -2.047885209783489 0 2.0 -2.047885209783489 1
gene  2 3 4 2.3801160410475064 0 3.0 2.3801160410475064 1
gene  2 1 5 -6.666513404494365 0 4.0 -6.666513404494365 1
gene  2 2 5 1.3584169173026517 0 5.0 1.3584169173026517 1
gene  2 3 5 -0.726197670780419 0 6.0 -0.726197670780419 1
gene  1 1 7 -1.7571923558815223 0 13.0 -1.7571923558815223 1
gene  3 7 4 -1.6405410980554913 0 14.0 -1.6405410980554913 1
gene  1 5 7 -0.753541640080586 0 17.0 -0.753541640080586 1
gene  2 2 10 1.8855829321089759 0 26.0 1.8855829321089759 1
gene  1 10 4 0.7033727869915927 0 27.0 0.7033727869915927 1
gene  2 2 21 -8.285089711849503 0 83.0 -8.285089711849503 1
gene  2 21 4 -2.805505138910586 0 84.0 -2.805505138910586 1
gene  2 1 34 -5.20507174137872 0 140.0 -5.20507174137872 1
gene  2 34 5 -1.5006730005154136 0 141.0 -1.5006730005154136 1
gene  1 34 21 3.265819279352373 0 333.0 3.265819279352373 1
gene  2 1 10 -2.9057880825480678 0 502.0 -2.9057880825480678 1
gene  2 10 5 -1.4269125125511004 0 544.0 -1.4269125125511004 1
gene  3 3 7 6.788932337917923 0 744.0 6.788932337917923 1
gene  1 34 176 0.8044926883786703 0 769.0 0.8044926883786703 1
gene  1 176 21 -0.3404487185566736 0 770.0 -0.3404487185566736 1
gene  2 1 176 1.2938582761285953 0 830.0 1.2938582761285953 1
gene  2 2 7 3.579490345124587 0 942.0 3.579490345124587 1
gene  1 1 236 6.985955948691333 0 1009.0 6.985955948691333 1
gene  1 236 5 -1.811014169212819 0 1010.0 -1.811014169212819 1
gene  1 5 244 17.428479242249995 0 1042.0 17.428479242249995 1
gene  1 244 7 4.610834055602132 0 1043.0 4.610834055602132 1
gene  2 2 293 -2.5170227956537303 0 1235.0 -2.5170227956537303 1
gene  2 293 21 -1.306893152455892 0 1236.0 -1.306893152455892 1
gene  2 7 293 -0.2625726386855757 0 1614.0 -0.2625726386855757 1
gene  1 236 10 -2.596604240782169 0 1734.0 -2.596604240782169 1
gene  1 2 412 4.507248391061513 0 1770.0 4.507248391061513 1
gene  2 412 10 -8.26901870120814 0 1771.0 -8.26901870120814 1
gene  1 5 426 3.411977379286542 0 1846.0 3.411977379286542 1
gene  1 426 7 -0.03431616211615085 0 1847.0 -0.03431616211615085 0
gene  2 244 293 -3.0206396495099384 0 1883.0 -3.0206396495099384 1
gene  2 2 440 13.014821314735988 0 1903.0 13.014821314735988 1
gene  1 440 412 -6.227140601878397 0 1904.0 -6.227140601878397 1
gene  1 1 244 -0.7996083029147867 0 1984.0 -0.7996083029147867 1
gene  1 1 466 22.61539471283922 0 2026.0 22.61539471283922 1
gene  1 466 7 3.6918167142802143 0 2027.0 3.6918167142802143 1
gene  2 3 293 6.568653723273838 0 2100.0 6.568653723273838 1
gene  1 1 484 2.1252242163750594 0 2116.0 2.1252242163750594 1
gene  1 484 244 -0.5174056778480693 0 2117.0 -0.5174056778480693 1
gene  1 466 5 2.843735414089524 0 2153.0 2.843735414089524 1
gene  1 236 502 3.339231699955816 0 2189.0 3.339231699955816 1
gene  3 502 10 0.8023068008345557 0 2190.0 0.8023068008345557 1
gene  3 34 426 3.4852479799838183 0 2213.0 3.4852479799838183 1
gene  1 502 510 -0.1509903023277399 0 2224.0 -0.1509903023277399 1
gene  1 510 10 0.37923925371894285 0 2225.0 0.37923925371894285 1
gene  3 440 21 -6.500360082527232 0 2256.0 -6.500360082527232 1
gene  2 34 522 -1.6517286370715105 0 2274.0 -1.6517286370715105 1
gene  3 522 426 -0.240795221821555 0 2275.0 -0.240795221821555 1
gene  2 466 510 2.030562818953117 0 2446.0 2.030562818953117 1
gene  2 236 293 -8.030421692717251 0 2572.0 -8.030421692717251 1
gene  2 412 7 -6.461381115320673 0 2579.0 -6.461381115320673 1
gene  1 466 590 6.554030727571405 0 2611.0 6.554030727571405 1
gene  1 590 5 5.573547500929358 0 2612.0 5.573547500929358 1
gene  1 34 611 -2.90596471093753 0 2696.0 -2.90596471093753 1
gene  1 611 176 -0.822281988003282 0 2697.0 -0.822281988003282 1
gene  3 10 611 -3.645925076110625 0 2728.0 -3.645925076110625 1
gene  2 412 244 2.498516959039289 0 2751.0 2.498516959039289 1
gene  1 5 628 3.1842112529938547 0 2769.0 3.1842112529938547 1
gene  1 628 7 -2.474565667749714 0 2770.0 -2.474565667749714 0
gene  2 34 705 5.019588848070741 0 3123.0 5.019588848070741 0
gene  2 705 522 -3.541854405881954 0 3124.0 -3.541854405881954 1
gene  1 590 176 0.8537222018181057 0 3271.0 0.8537222018181057 1
gene  1 236 440 -2.9394275131172267 0 3959.0 -2.9394275131172267 1
gene  1 484 887 -1.5381767443547063 0 3977.0 -1.5381767443547063 1
gene  1 887 244 -0.8402212807558759 0 3978.0 -0.8402212807558759 1
gene  2 611 484 2.2319402679764737 0 3993.0 2.2319402679764737 1
gene  2 5 611 1.3788570324776428 0 4021.0 1.3788570324776428 1
gene  2 611 21 10.436275165070477 0 4166.0 10.436275165070477 1
gene  2 2 927 9.070637168286673 0 4190.0 9.070637168286673 1
gene  2 927 21 7.470288416711661 0 4191.0 7.470288416711661 1
gene  1 236 943 3.504729612115523 0 4259.0 3.504729612115523 1
gene  1 943 10 9.197872736383827 0 4260.0 9.197872736383827 1
gene  3 943 293 -3.717338336347651 0 4285.0 -3.717338336347651 1
gene  1 176 426 2.5115554363441572 0 4524.0 2.5115554363441572 1
gene  2 293 927 2.6580332593441165 0 4598.0 2.6580332593441165 1
gene  2 705 611 5.007794945831738 0 4636.0 5.007794945831738 1
gene  1 466 21 -2.5103107104398488 0 4649.0 -2.5103107104398488 1
gene  3 943 705 -6.693915185414239 0 4696.0 -6.693915185414239 1
gene  2 236 1123 4.892883919302079 0 5156.0 4.892883919302079 1
gene  2 1123 293 -4.037865617149988 0 5157.0 -4.037865617149988 1
gene  1 34 927 -2.1080162398830113 0 5208.0 -2.1080162398830113 1
gene  3 412 426 1.1873710920669889 0 5253.0 1.1873710920669889 1
gene  1 1 1162 6.86323260949894 0 5368.0 6.86323260949894 1
gene  1 1162 236 4.055052805618907 0 5369.0 4.055052805618907 1
gene  1 1162 21 -1.7139800510615117 0 5410.0 -1.7139800510615117 1
gene  1 628 1176 3.272432407258685 0 5418.0 3.272432407258685 1
gene  1 1176 7 2.4151027706636357 0 5419.0 2.4151027706636357 1
gene  3 34 7 -0.21400828569839325 0 5474.0 -0.21400828569839325 1
gene  2 466 34 -4.712428361275718 0 5587.0 -4.712428361275718 1
gene  2 466 943 3.5924496691828214 0 5691.0 3.5924496691828214 1
gene  2 611 1176 1.3558241345938953 0 5738.0 1.3558241345938953 1
gene  1 943 1246 -2.467576212999845 0 5753.0 -2.467576212999845 1
gene  1 1246 10 1.123656255973021 0 5754.0 1.123656255973021 1
gene  3 236 590 0.017589168817620737 0 5919.0 0.017589168817620737 1
gene  1 440 943 0.7207940962186505 0 5962.0 0.7207940962186505 1
gene  2 1246 5 -1.7780069530321438 0 6180.0 -1.7780069530321438 1
gene  2 522 887 0.9011953727345203 0 6217.0 0.9011953727345203 1
gene  2 2 1355 0.8678223849306386 0 6258.0 0.8678223849306386 1
gene  2 1355 21 0.6747646401156748 0 6259.0 0.6747646401156748 1
gene  3 1355 943 -0.8635699573180735 0 6416.0 -0.8635699573180735 1
gene  2 440 502 -0.792145241450054 0 6522.0 -0.792145241450054 1
gene  1 943 1423 0.23429015880651094 0 6585.0 0.23429015880651094 1
gene  1 1423 1246 -3.4236425415223355 0 6586.0 -3.4236425415223355 1
gene  2 5 887 -2.380329975748744 0 6616.0 -2.380329975748744 1
gene  1 440 466 -0.3325308149345374 0 6678.0 -0.3325308149345374 1
gene  1 484 628 9.68888829068127 0 6716.0 9.68888829068127 1
gene  1 3 943 2.546887259924296 0 6730.0 2.546887259924296 1
gene  2 3 522 6.476628635377022 0 6774.0 6.476628635377022 1
gene  1 502 927 0.14959074295107744 0 6786.0 0.14959074295107744 1
gene  2 236 34 -7.423005373246459 0 6836.0 -7.423005373246459 1
gene  2 2 1477 2.885620276020976 0 6852.0 2.885620276020976 1
gene  2 1477 7 1.0940651462257125 0 6853.0 1.0940651462257125 1
gene  2 34 1484 -0.16118106374741603 0 6888.0 -0.16118106374741603 1
gene  2 1484 705 3.0487891853653135 0 6889.0 3.0487891853653135 1
gene  3 1176 1477 3.7768039555248945 0 6910.0 3.7768039555248945 1
gene  3 293 4 -0.9926003789680358 0 6942.0 -0.9926003789680358 1
gene  1 887 1176 1.7590056451142921 0 6985.0 1.7590056451142921 1
genomeend 5
/* Organism # 006 Fitness:  0,000 Error:  0,000                      */
genomestart  6
trait 1 0.6489620646775441 0.0 0.0 0.0 0.15286354174562805 0.0 0.3900313924978889 0.35661965371392773 
trait 2 1.074811330873656 0.9171019701119769 0.6506021312870152 1.6640528422322318 1.3013589191270647 0.6536908226448365 0.12809857777412514 0.11511788893623909 
trait 3 1.2950104924035806 0.13530548914241503 1.3276745383119515 0.8632268314171132 0.4221298963308197 0.07327896901387221 0.0 1.426617088196195 
node 1 1 1 1
node 2 1 1 1
node 3 1 1 3
node 4 3 0 2
node 5 1 0 2
node 7 2 0 0
node 10 2 0 0
node 21 1 0 0
node 34 1 0 0
node 176 1 0 0
node 236 3 0 0
node 244 2 0 0
node 293 3 0 0
node 412 1 0 0
node 426 1 0 0
node 440 1 0 0
node 466 1 0 0
node 484 1 0 0
node 502 1 0 0
node 510 1 0 0
node 522 1 0 0
node 590 1 0 0
node 611 1 0 0
node 628 1 0 0
node 705 1 0 0
node 887 1 0 0
node 927 1 0 0
node 943 1 0 0
node 1123 1 0 0
node 1162 1 0 0
node 1176 1 0 0
node 1246 1 0 0
node 1355 1 0 0
node 1423 1 0 0
node 1477 1 0 0
node 1484 1 0 0
gene  2 1 4 -16.563973815959564 0 1.0 -16.563973815959564 0
gene  2 2 4 -1.0888668121561658 0 2.0 -1.0888668121561658 1
gene  2 3 4 0.576654580354881 0 3.0 0.576654580354881 1
gene  2 1 5 -6.326124564818375 0 4.0 -6.326124564818375 1
gene  2 2 5 -0.07830965314613747 0 5.0 -0.07830965314613747 1
gene  2 3 5 0.43521392521303126 0 6.0 0.43521392521303126 1
gene  1 1 7 -0.5421146917901853 0 13.0 -0.5421146917901853 1
gene  3 7 4 -1.6010739418489726 0 14.0 -1.6010739418489726 1
gene  1 5 7 2.424679882401837 0 17.0 2.424679882401837 1
gene  2 2 10 3.916315060557789 0 26.0 3.916315060557789 1
gene  1 10 4 -0.5888500614518997 0 27.0 -0.5888500614518997 1
gene  2 2 21 -4.861734987750411 0 83.0 -4.861734987750411 1
gene  2 21 4 -2.196842213699348 0 84.0 -2.196842213699348 1
gene  2 1 34 -6.888103999195311 0 140.0 -6.888103999195311 1
gene  2 34 5 -1.76009334503172 0 141.0 -1.76009334503172 1
gene  1 34 21 3.459333767768835 0 333.0 3.459333767768835 1
gene  2 1 10 -2.4699767644481896 0 502.0 -2.4699767644481896 1
gene  2 10 5 -0.84788512819306 0 544.0 -0.84788512819306 1
gene  3 3 7 6.212093656450399 0 744.0 6.212093656450399 1
gene  1 34 176 2.4754920576832236 0 769.0 2.4754920576832236 1
gene  1 176 21 -0.939491477413156 0 770.0 -0.939491477413156 1
gene  2 1 176 4.378518363282724 0 830.0 4.378518363282724 1
gene  2 2 7 1.2847528614367325 0 942.0 1.2847528614367325 1
gene  1 1 236 3.916227696939308 0 1009.0 3.916227696939308 1
gene  1 236 5 -1.3400987576271688 0 1010.0 -1.3400987576271688 1
gene  1 5 244 20.545133648256865 0 1042.0 20.545133648256865 1
gene  1 244 7 5.893905286305835 0 1043.0 5.893905286305835 1
gene  2 2 293 1.7909609054737352 0 1235.0 1.7909609054737352 1
gene  2 293 21 -0.1392506270335736 0 1236.0 -0.1392506270335736 1
gene  2 7 293 -0.15586909073526212 0 1614.0 -0.15586909073526212 1
gene  1 236 10 -1.6144182110056975 0 1734.0 -1.6144182110056975 1
gene  1 2 412 2.4696124598290417 0 1770.0 2.4696124598290417 1
gene  2 412 10 -4.889108217549055 0 1771.0 -4.889108217549055 1
gene  1 5 426 0.8116839353434646 0 1846.0 0.8116839353434646 1
gene  1 426 7 0.7445848436211975 0 1847.0 0.7445848436211975 0
gene  2 244 293 -0.3703540110597676 0 1883.0 -0.3703540110597676 1
gene  2 2 440 13.164840675099791 0 1903.0 13.164840675099791 1
gene  1 440 412 -2.074315780977772 0 1904.0 -2.074315780977772 1
gene  1 1 244 -0.13328896621348774 0 1984.0 -0.13328896621348774 1
gene  1 1 466 22.032562234934858 0 2026.0 22.032562234934858 1
gene  1 466 7 1.0482714558884323 0 2027.0 1.0482714558884323 1
gene  2 3 293 5.1420415709567795 0 2100.0 5.1420415709567795 1
gene  1 1 484 1.3777759084093597 0 2116.0 1.3777759084093597 1
gene  1 484 244 -0.8222363405823699 0 2117.0 -0.8222363405823699 1
gene  1 466 5 2.97601645248368 0 2153.0 2.97601645248368 1
gene  1 236 502 1.4944452591030633 0 2189.0 1.4944452591030633 1
gene  3 502 10 2.9206768456869017 0 2190.0 2.9206768456869017 1
gene  3 34 426 1.7841461764469877 0 2213.0 1.7841461764469877 1
gene  1 502 510 -2.9898960708780757 0 2224.0 -2.9898960708780757 1
gene  1 510 10 -0.8160958145402765 0 2225.0 -0.8160958145402765 1
gene  3 440 21 -4.995316654148365 0 2256.0 -4.995316654148365 1
gene  2 34 522 -3.03943845264748 0 2274.0 -3.03943845264748 1
gene  3 522 426 -0.9252606973150839 0 2275.0 -0.9252606973150839 1
gene  2 466 510 1.7948811280221695 0 2446.0 1.7948811280221695 1
gene  2 236 293 -6.239967228263207 0 2572.0 -6.239967228263207 1
gene  2 412 7 -5.802543191815781 0 2579.0 -5.802543191815781 1
gene  1 466 590 6.030570333719417 0 2611.0 6.030570333719417 1
gene  1 590 5 3.881744989234469 0 2612.0 3.881744989234469 1
gene  1 34 611 -3.295497102168553 0 2696.0 -3.295497102168553 1
gene  1 611 176 1.4630616971790882 0 2697.0 1.4630616971790882 1
gene  3 10 611 0.10491574147930893 0 2728.0 0.10491574147930893 1
gene  2 412 244 3.005020242074338 0 2751.0 3.005020242074338 1
gene  1 5 628 1.977731592320607 0 2769.0 1.977731592320607 1
gene  1 628 7 -3.8597117038466457 0 2770.0 -3.8597117038466457 0
gene  2 34 705 5.425234848434934 0 3123.0 5.425234848434934 0
gene  2 705 522 0.7521760635174242 0 3124.0 0.7521760635174242 1
gene  1 590 176 -3.5420927775695152 0 3271.0 -3.5420927775695152 1
gene  1 236 440 -2.4770220639055616 0 3959.0 -2.4770220639055616 1
gene  1 484 887 -1.7832939498412608 0 3977.0 -1.7832939498412608 1
gene  1 887 244 -1.3868180872781952 0 3978.0 -1.3868180872781952 1
gene  2 611 484 1.0755728111790013 0 3993.0 1.0755728111790013 1
gene  2 5 611 -0.7331543908480289 0 4021.0 -0.7331543908480289 1
gene  2 611 21 10.45958644627433 0 4166.0 10.45958644627433 1
gene  2 2 927 8.661952052240387 0 4190.0 8.661952052240387 1
gene  2 927 21 7.252824372323912 0 4191.0 7.252824372323912 1
gene  1 236 943 -0.23747032395654322 0 4259.0 -0.23747032395654322 1
gene  1 943 10 7.756600484159765 0 4260.0 7.756600484159765 1
gene  3 943 293 -7.2446151148247635 0 4285.0 -7.2446151148247635 1
gene  1 176 426 2.440258491391292 0 4524.0 2.440258491391292 1
gene  2 293 927 1.5981178111654637 0 4598.0 1.5981178111654637 1
gene  2 705 611 5.860140334378308 0 4636.0 5.860140334378308 1
gene  1 466 21 -2.4760649735146876 0 4649.0 -2.4760649735146876 1
gene  3 943 705 -6.570555782717927 0 4696.0 -6.570555782717927 1
gene  2 236 1123 4.270768094740485 0 5156.0 4.270768094740485 1
gene  2 1123 293 -4.0609571245080645 0 5157.0 -4.0609571245080645 1
gene  1 34 927 -4.276916153768883 0 5208.0 -4.276916153768883 1
gene  3 412 426 4.428871728009301 0 5253.0 4.428871728009301 1
gene  1 1 1162 8.210730207630736 0 5368.0 8.210730207630736 1
gene  1 1162 236 1.762765311851052 0 5369.0 1.762765311851052 1
gene  1 1162 21 1.2494097934395234 0 5410.0 1.2494097934395234 1
gene  1 628 1176 0.1600937905637736 0 5418.0 0.1600937905637736 1
gene  1 1176 7 0.2929118291428221 0 5419.0 0.2929118291428221 1
gene  3 34 7 0.23922732703373473 0 5474.0 0.23922732703373473 1
gene  2 466 34 -2.7399657084258777 0 5587.0 -2.7399657084258777 1
gene  2 466 943 3.3795216357043336 0 5691.0 3.3795216357043336 1
gene  2 611 1176 1.043087943017973 0 5738.0 1.043087943017973 1
gene  1 943 1246 -3.0876910926229195 0 5753.0 -3.0876910926229195 1
gene  1 1246 10 3.5943991032011917 0 5754.0 3.5943991032011917 1
gene  3 236 590 0.1762271862448208 0 5919.0 0.1762271862448208 1
gene  1 440 943 0.7207940962186505 0 5962.0 0.7207940962186505 1
gene  2 1246 5 -2.580917518720476 0 6180.0 -2.580917518720476 1
gene  2 522 887 2.5044218208570506 0 6217.0 2.5044218208570506 1
gene  2 2 1355 1.1685826786398588 0 6258.0 1.1685826786398588 1
gene  2 1355 21 1.7847876527422621 0 6259.0 1.7847876527422621 1
gene  3 1355 943 -0.8635699573180735 0 6416.0 -0.8635699573180735 1
gene  2 440 502 -2.541308391698117 0 6522.0 -2.541308391698117 1
gene  1 943 1423 0.5164686930690253 0 6585.0 0.5164686930690253 1
gene  1 1423 1246 2.296822773756784 0 6586.0 2.296822773756784 1
gene  2 5 887 -1.2602535428982247 0 6616.0 -1.2602535428982247 1
gene  1 440 466 0.004808157948034408 0 6678.0 0.004808157948034408 1
gene  1 484 628 9.68888829068127 0 6716.0 9.68888829068127 1
gene  1 3 943 1.041572873073555 0 6730.0 1.041572873073555 1
gene  2 3 522 1.5295268486432732 0 6774.0 1.5295268486432732 1
gene  1 502 927 -0.4117171172917524 0 6786.0 -0.4117171172917524 1
gene  2 236 34 -0.7397438966446374 0 6836.0 -0.7397438966446374 1
gene  2 2 1477 1.0 0 6852.0 1.0 1
gene  2 1477 7 0.43100397045556704 0 6853.0 0.43100397045556704 1
gene  2 34 1484 0.5659128026504578 0 6888.0 0.5659128026504578 1
gene  2 1484 705 5.931082416733348 0 6889.0 5.931082416733348 1
gene  3 1176 1477 3.7768039555248945 0 6910.0 3.7768039555248945 1
gene  3 293 4 -1.017190512160616 0 6942.0 -1.017190512160616 1
gene  1 887 1176 0.5460961223132303 0 6985.0 0.5460961223132303 1
genomeend 6
/* Organism # 007 Fitness:  0,000 Error:  0,000                      */
genomestart  7
trait 1 0.6489620646775441 0.0 0.0 0.0 0.15286354174562805 0.0 0.3900313924978889 0.35661965371392773 
trait 2 1.074811330873656 0.9171019701119769 0.6506021312870152 1.6640528422322318 1.3013589191270647 0.6536908226448365 0.12809857777412514 0.11511788893623909 
trait 3 1.2950104924035806 0.13530548914241503 1.3276745383119515 0.8632268314171132 0.4221298963308197 0.07327896901387221 0.0 1.426617088196195 
node 1 1 1 1
node 2 1 1 1
node 3 1 1 3
node 4 3 0 2
node 5 1 0 2
node 7 2 0 0
node 10 2 0 0
node 21 1 0 0
node 34 1 0 0
node 176 1 0 0
node 236 3 0 0
node 244 2 0 0
node 293 3 0 0
node 412 1 0 0
node 426 1 0 0
node 440 1 0 0
node 466 1 0 0
node 484 1 0 0
node 502 1 0 0
node 510 1 0 0
node 522 1 0 0
node 590 1 0 0
node 611 1 0 0
node 628 1 0 0
node 705 1 0 0
node 887 1 0 0
node 927 1 0 0
node 943 1 0 0
node 1123 1 0 0
node 1162 1 0 0
node 1176 1 0 0
node 1246 1 0 0
node 1355 1 0 0
node 1423 1 0 0
node 1477 1 0 0
node 1484 1 0 0
gene  2 1 4 -20.903580401087275 0 1.0 -20.903580401087275 0
gene  2 2 4 0.8672028741816585 0 2.0 0.8672028741816585 1
gene  2 3 4 2.0106152238229273 0 3.0 2.0106152238229273 1
gene  2 1 5 -5.3174487812669815 0 4.0 -5.3174487812669815 1
gene  2 2 5 1.0375402184936307 0 5.0 1.0375402184936307 1
gene  2 3 5 1.9905308393553793 0 6.0 1.9905308393553793 1
gene  1 1 7 -2.8313937770378224 0 13.0 -2.8313937770378224 1
gene  3 7 4 -1.469405626930485 0 14.0 -1.469405626930485 1
gene  1 5 7 -1.3983065609127405 0 17.0 -1.3983065609127405 1
gene  2 2 10 -0.2606107606329431 0 26.0 -0.2606107606329431 1
gene  1 10 4 -1.5671362848462844 0 27.0 -1.5671362848462844 1
gene  2 2 21 -5.22175111678464 0 83.0 -5.22175111678464 1
gene  2 21 4 -2.1524604656052473 0 84.0 -2.1524604656052473 1
gene  2 1 34 -3.374052410954996 0 140.0 -3.374052410954996 1
gene  2 34 5 -1.8329836197703404 0 141.0 -1.8329836197703404 1
gene  1 34 21 3.6349747990631966 0 333.0 3.6349747990631966 1
gene  2 1 10 1.0462107277512422 0 502.0 1.0462107277512422 1
gene  2 10 5 -4.473588922383593 0 544.0 -4.473588922383593 1
gene  3 3 7 7.587549481890101 0 744.0 7.587549481890101 1
gene  1 34 176 2.3166563906031232 0 769.0 2.3166563906031232 1
gene  1 176 21 -0.7504170005233624 0 770.0 -0.7504170005233624 1
gene  2 1 176 3.964160162436979 0 830.0 3.964160162436979 1
gene  2 2 7 3.5850361435561124 0 942.0 3.5850361435561124 1
gene  1 1 236 6.868167581497605 0 1009.0 6.868167581497605 1
gene  1 236 5 -1.6805649129018536 0 1010.0 -1.6805649129018536 1
gene  1 5 244 17.484529077835695 0 1042.0 17.484529077835695 1
gene  1 244 7 3.315035499797306 0 1043.0 3.315035499797306 1
gene  2 2 293 -1.5792007157428243 0 1235.0 -1.5792007157428243 1
gene  2 293 21 0.42738934736338696 0 1236.0 0.42738934736338696 1
gene  2 7 293 2.9314398596358604 0 1614.0 2.9314398596358604 1
gene  1 236 10 -1.078065406533855 0 1734.0 -1.078065406533855 1
gene  1 2 412 2.405914973368777 0 1770.0 2.405914973368777 1
gene  2 412 10 -6.443096360938085 0 1771.0 -6.443096360938085 1
gene  1 5 426 1.3123797563778221 0 1846.0 1.3123797563778221 1
gene  1 426 7 -1.2396463487888256 0 1847.0 -1.2396463487888256 0
gene  2 244 293 -3.1322749995943204 0 1883.0 -3.1322749995943204 1
gene  2 2 440 16.00047507354571 0 1903.0 16.00047507354571 1
gene  1 440 412 -2.374087745714765 0 1904.0 -2.374087745714765 1
gene  1 1 244 0.336888251599867 0 1984.0 0.336888251599867 1
gene  1 1 466 21.780365396630327 0 2026.0 21.780365396630327 1
gene  1 466 7 1.8884605779606258 0 2027.0 1.8884605779606258 1
gene  2 3 293 3.2543404307265176 0 2100.0 3.2543404307265176 1
gene  1 1 484 0.27946054448152324 0 2116.0 0.27946054448152324 1
gene  1 484 244 -0.8472018412215391 0 2117.0 -0.8472018412215391 1
gene  1 466 5 3.0393534202260364 0 2153.0 3.0393534202260364 1
gene  1 236 502 2.713678567048471 0 2189.0 2.713678567048471 1
gene  3 502 10 5.404812149469427 0 2190.0 5.404812149469427 1
gene  3 34 426 0.25387889923582385 0 2213.0 0.25387889923582385 1
gene  1 502 510 -0.7074686374091219 0 2224.0 -0.7074686374091219 1
gene  1 510 10 -2.8416837682128318 0 2225.0 -2.8416837682128318 1
gene  3 440 21 -6.937265899031763 0 2256.0 -6.937265899031763 1
gene  2 34 522 -0.2207020455259745 0 2274.0 -0.2207020455259745 1
gene  3 522 426 -1.174477058926235 0 2275.0 -1.174477058926235 1
gene  2 466 510 0.5909757305058723 0 2446.0 0.5909757305058723 1
gene  2 236 293 -8.91047971378716 0 2572.0 -8.91047971378716 1
gene  2 412 7 -2.17099604030148 0 2579.0 -2.17099604030148 1
gene  1 466 590 8.766687359267722 0 2611.0 8.766687359267722 1
gene  1 590 5 6.583022280275958 0 2612.0 6.583022280275958 1
gene  1 34 611 -4.205049845734792 0 2696.0 -4.205049845734792 1
gene  1 611 176 -2.0489636219126415 0 2697.0 -2.0489636219126415 1
gene  3 10 611 -4.010960392461545 0 2728.0 -4.010960392461545 1
gene  2 412 244 2.713211501867592 0 2751.0 2.713211501867592 1
gene  1 5 628 -0.07337360244732216 0 2769.0 -0.07337360244732216 1
gene  1 628 7 -2.0748625978089352 0 2770.0 -2.0748625978089352 0
gene  2 34 705 6.063950708623286 0 3123.0 6.063950708623286 0
gene  2 705 522 0.2087800121244019 0 3124.0 0.2087800121244019 1
gene  1 590 176 -3.2724119735708523 0 3271.0 -3.2724119735708523 1
gene  1 236 440 -0.7449828715762284 0 3959.0 -0.7449828715762284 1
gene  1 484 887 -1.0048641167382262 0 3977.0 -1.0048641167382262 1
gene  1 887 244 1.163979740313199 0 3978.0 1.163979740313199 1
gene  2 611 484 0.09986362420700834 0 3993.0 0.09986362420700834 1
gene  2 5 611 1.8494024890763834 0 4021.0 1.8494024890763834 1
gene  2 611 21 10.836306130132728 0 4166.0 10.836306130132728 1
gene  2 2 927 10.674756024597068 0 4190.0 10.674756024597068 1
gene  2 927 21 6.66299291946363 0 4191.0 6.66299291946363 1
gene  1 236 943 -0.35922575069595064 0 4259.0 -0.35922575069595064 1
gene  1 943 10 6.045583889523709 0 4260.0 6.045583889523709 1
gene  3 943 293 -5.499667727947276 0 4285.0 -5.499667727947276 1
gene  1 176 426 4.218336149531436 0 4524.0 4.218336149531436 1
gene  2 293 927 -0.17007152367283584 0 4598.0 -0.17007152367283584 1
gene  2 705 611 1.997517762533931 0 4636.0 1.997517762533931 1
gene  1 466 21 -1.0120576494367524 0 4649.0 -1.0120576494367524 1
gene  3 943 705 -8.727431648561847 0 4696.0 -8.727431648561847 1
gene  2 236 1123 5.292556200439108 0 5156.0 5.292556200439108 1
gene  2 1123 293 -0.44281162727727796 0 5157.0 -0.44281162727727796 1
gene  1 34 927 -2.599620080741159 0 5208.0 -2.599620080741159 1
gene  3 412 426 1.5528696192888576 0 5253.0 1.5528696192888576 1
gene  1 1 1162 10.708566377743006 0 5368.0 10.708566377743006 1
gene  1 1162 236 1.8617690654505594 0 5369.0 1.8617690654505594 1
gene  1 1162 21 -1.6378989471109588 0 5410.0 -1.6378989471109588 1
gene  1 628 1176 3.2901561056481716 0 5418.0 3.2901561056481716 1
gene  1 1176 7 0.8586589811339131 0 5419.0 0.8586589811339131 1
gene  3 34 7 -1.611335573831497 0 5474.0 -1.611335573831497 1
gene  2 466 34 -3.5460250603473904 0 5587.0 -3.5460250603473904 1
gene  2 466 943 5.469694080473692 0 5691.0 5.469694080473692 1
gene  2 611 1176 -1.248694548119977 0 5738.0 -1.248694548119977 1
gene  1 943 1246 -3.6187317627960693 0 5753.0 -3.6187317627960693 1
gene  1 1246 10 0.4906760107347048 0 5754.0 0.4906760107347048 1
gene  3 236 590 0.1762271862448208 0 5919.0 0.1762271862448208 1
gene  1 440 943 0.6913740912097859 0 5962.0 0.6913740912097859 1
gene  2 1246 5 1.8403861079659578 0 6180.0 1.8403861079659578 1
gene  2 522 887 0.9011953727345203 0 6217.0 0.9011953727345203 1
gene  2 2 1355 4.203410101311734 0 6258.0 4.203410101311734 1
gene  2 1355 21 0.6747646401156748 0 6259.0 0.6747646401156748 1
gene  3 1355 943 -0.3910287804080359 0 6416.0 -0.3910287804080359 1
gene  2 440 502 -0.12951811972277877 0 6522.0 -0.12951811972277877 1
gene  1 943 1423 0.23429015880651094 0 6585.0 0.23429015880651094 1
gene  1 1423 1246 -2.224724966470754 0 6586.0 -2.224724966470754 1
gene  2 5 887 -4.490367982833949 0 6616.0 -4.490367982833949 1
gene  1 440 466 2.6346698207392216 0 6678.0 2.6346698207392216 1
gene  1 484 628 11.498783418684962 0 6716.0 11.498783418684962 1
gene  1 3 943 -2.3701927783438497 0 6730.0 -2.3701927783438497 1
gene  2 3 522 6.33710704639808 0 6774.0 6.33710704639808 1
gene  1 502 927 -1.2152020482432355 0 6786.0 -1.2152020482432355 1
gene  2 236 34 -2.2073191799577523 0 6836.0 -2.2073191799577523 1
gene  2 2 1477 -0.30353753598467814 0 6852.0 -0.30353753598467814 1
gene  2 1477 7 3.468079053992484 0 6853.0 3.468079053992484 1
gene  2 34 1484 2.29327153900496 0 6888.0 2.29327153900496 1
gene  2 1484 705 5.2942364271603175 0 6889.0 5.2942364271603175 1
gene  3 1176 1477 2.3857036114814534 0 6910.0 2.3857036114814534 1
gene  3 293 4 -3.135063372861592 0 6942.0 -3.135063372861592 1
gene  1 887 1176 -0.6503413241031877 0 6985.0 -0.6503413241031877 1
genomeend 7
/* Organism # 008 Fitness:  0,000 Error:  0,000                      */
genomestart  8
trait 1 0.6489620646775441 0.0 0.0 0.0 0.15286354174562805 0.0 0.3900313924978889 0.35661965371392773 
trait 2 1.074811330873656 0.9171019701119769 0.6506021312870152 1.6640528422322318 1.3013589191270647 0.6536908226448365 0.12809857777412514 0.11511788893623909 
trait 3 1.2950104924035806 0.13530548914241503 1.3276745383119515 0.8632268314171132 0.4221298963308197 0.07327896901387221 0.0 1.426617088196195 
node 1 1 1 1
node 2 1 1 1
node 3 1 1 3
node 4 3 0 2
node 5 1 0 2
node 7 2 0 0
node 10 2 0 0
node 21 1 0 0
node 34 1 0 0
node 176 1 0 0
node 236 3 0 0
node 244 2 0 0
node 293 3 0 0
node 412 1 0 0
node 426 1 0 0
node 440 1 0 0
node 466 1 0 0
node 484 1 0 0
node 502 1 0 0
node 510 1 0 0
node 522 1 0 0
node 590 1 0 0
node 611 1 0 0
node 628 1 0 0
node 705 1 0 0
node 887 1 0 0
node 927 1 0 0
node 943 1 0 0
node 1123 1 0 0
node 1162 1 0 0
node 1176 1 0 0
node 1246 1 0 0
node 1355 1 0 0
node 1423 1 0 0
node 1477 1 0 0
node 1484 1 0 0
gene  2 1 4 -16.619641507007575 0 1.0 -16.619641507007575 0
gene  2 2 4 0.9714346170035375 0 2.0 0.9714346170035375 1
gene  2 3 4 3.640342275010566 0 3.0 3.640342275010566 1
gene  2 1 5 -3.7259786621314124 0 4.0 -3.7259786621314124 1
gene  2 2 5 -1.1351794311907615 0 5.0 -1.1351794311907615 1
gene  2 3 5 1.2464746538688227 0 6.0 1.2464746538688227 1
gene  1 1 7 -2.7932338669567747 0 13.0 -2.7932338669567747 1
gene  3 7 4 -3.981942952771927 0 14.0 -3.981942952771927 1
gene  1 5 7 1.0979856569130022 0 17.0 1.0979856569130022 1
gene  2 2 10 0.8023663491347701 0 26.0 0.8023663491347701 1
gene  1 10 4 -3.8107510684480865 0 27.0 -3.8107510684480865 1
gene  2 2 21 -7.893816228306967 0 83.0 -7.893816228306967 1
gene  2 21 4 -3.0170152483357144 0 84.0 -3.0170152483357144 1
gene  2 1 34 -6.32183270166622 0 140.0 -6.32183270166622 1
gene  2 34 5 -1.195761649166104 0 141.0 -1.195761649166104 1
gene  1 34 21 5.426659216561891 0 333.0 5.426659216561891 1
gene  2 1 10 0.29496273899780345 0 502.0 0.29496273899780345 1
gene  2 10 5 -2.502238661668086 0 544.0 -2.502238661668086 1
gene  3 3 7 5.8043901117125465 0 744.0 5.8043901117125465 1
gene  1 34 176 3.806803525067903 0 769.0 3.806803525067903 1
gene  1 176 21 0.8193767536416323 0 770.0 0.8193767536416323 1
gene  2 1 176 3.9633708162309054 0 830.0 3.9633708162309054 1
gene  2 2 7 0.580265633058227 0 942.0 0.580265633058227 1
gene  1 1 236 8.195375417386899 0 1009.0 8.195375417386899 1
gene  1 236 5 0.6619555695517645 0 1010.0 0.6619555695517645 1
gene  1 5 244 20.000498655221982 0 1042.0 20.000498655221982 1
gene  1 244 7 4.286067409894929 0 1043.0 4.286067409894929 1
gene  2 2 293 -1.9730713021158013 0 1235.0 -1.9730713021158013 1
gene  2 293 21 -0.5608158153397476 0 1236.0 -0.5608158153397476 1
gene  2 7 293 1.7796076609654987 0 1614.0 1.7796076609654987 1
gene  1 236 10 1.4785541319390325 0 1734.0 1.4785541319390325 1
gene  1 2 412 1.2811133580371517 0 1770.0 1.2811133580371517 1
gene  2 412 10 -5.949430722023505 0 1771.0 -5.949430722023505 1
gene  1 5 426 3.4358634848585403 0 1846.0 3.4358634848585403 1
gene  1 426 7 -1.4130882188995069 0 1847.0 -1.4130882188995069 0
gene  2 244 293 -0.31309466889965654 0 1883.0 -0.31309466889965654 1
gene  2 2 440 12.718155750226751 0 1903.0 12.718155750226751 1
gene  1 440 412 -1.8500211493772425 0 1904.0 -1.8500211493772425 1
gene  1 1 244 -1.321334378541533 0 1984.0 -1.321334378541533 1
gene  1 1 466 23.72635412485924 0 2026.0 23.72635412485924 1
gene  1 466 7 4.405561885610406 0 2027.0 4.405561885610406 1
gene  2 3 293 3.989072877881455 0 2100.0 3.989072877881455 1
gene  1 1 484 3.918356016783848 0 2116.0 3.918356016783848 1
gene  1 484 244 0.1206221938517602 0 2117.0 0.1206221938517602 1
gene  1 466 5 2.62097889951965 0 2153.0 2.62097889951965 1
gene  1 236 502 0.9263696409202568 0 2189.0 0.9263696409202568 1
gene  3 502 10 2.322425675652946 0 2190.0 2.322425675652946 1
gene  3 34 426 0.10604034939662155 0 2213.0 0.10604034939662155 1
gene  1 502 510 -2.0411069339530976 0 2224.0 -2.0411069339530976 1
gene  1 510 10 -1.9778250231520371 0 2225.0 -1.9778250231520371 1
gene  3 440 21 -5.153753795187666 0 2256.0 -5.153753795187666 1
gene  2 34 522 -2.3406829664607187 0 2274.0 -2.3406829664607187 1
gene  3 522 426 -1.023810744397118 0 2275.0 -1.023810744397118 1
gene  2 466 510 -1.2905435914903118 0 2446.0 -1.2905435914903118 1
gene  2 236 293 -5.822371650089995 0 2572.0 -5.822371650089995 1
gene  2 412 7 -5.803176547025048 0 2579.0 -5.803176547025048 1
gene  1 466 590 10.561240942500168 0 2611.0 10.561240942500168 1
gene  1 590 5 2.818834561497847 0 2612.0 2.818834561497847 1
gene  1 34 611 -7.38482013740942 0 2696.0 -7.38482013740942 1
gene  1 611 176 -1.5775385193253606 0 2697.0 -1.5775385193253606 1
gene  3 10 611 0.43995158919555766 0 2728.0 0.43995158919555766 1
gene  2 412 244 2.0979940976062794 0 2751.0 2.0979940976062794 1
gene  1 5 628 3.0255153773856565 0 2769.0 3.0255153773856565 1
gene  1 628 7 -0.5818995759711909 0 2770.0 -0.5818995759711909 0
gene  2 34 705 2.920276799074739 0 3123.0 2.920276799074739 0
gene  2 705 522 -3.323380986634376 0 3124.0 -3.323380986634376 1
gene  1 590 176 -3.0153333865196617 0 3271.0 -3.0153333865196617 1
gene  1 236 440 -0.6649977086985439 0 3959.0 -0.6649977086985439 1
gene  1 484 887 -2.363652583456312 0 3977.0 -2.363652583456312 1
gene  1 887 244 1.632455891251654 0 3978.0 1.632455891251654 1
gene  2 611 484 2.4829279534261386 0 3993.0 2.4829279534261386 1
gene  2 5 611 1.0425848592845 0 4021.0 1.0425848592845 1
gene  2 611 21 9.961131888240605 0 4166.0 9.961131888240605 1
gene  2 2 927 11.903180838315938 0 4190.0 11.903180838315938 1
gene  2 927 21 3.989252634896359 0 4191.0 3.989252634896359 1
gene  1 236 943 4.017503360653181 0 4259.0 4.017503360653181 1
gene  1 943 10 5.193421591575577 0 4260.0 5.193421591575577 1
gene  3 943 293 -6.562185617658272 0 4285.0 -6.562185617658272 1
gene  1 176 426 0.8587956566242219 0 4524.0 0.8587956566242219 1
gene  2 293 927 0.5845492773310377 0 4598.0 0.5845492773310377 1
gene  2 705 611 5.835581073475714 0 4636.0 5.835581073475714 1
gene  1 466 21 -4.5999906091087635 0 4649.0 -4.5999906091087635 1
gene  3 943 705 -9.07397899750508 0 4696.0 -9.07397899750508 1
gene  2 236 1123 1.9600660430669614 0 5156.0 1.9600660430669614 1
gene  2 1123 293 -4.4424490868644195 0 5157.0 -4.4424490868644195 1
gene  1 34 927 -4.2490498676473445 0 5208.0 -4.2490498676473445 1
gene  3 412 426 3.618248261818322 0 5253.0 3.618248261818322 1
gene  1 1 1162 6.399850077633257 0 5368.0 6.399850077633257 1
gene  1 1162 236 2.349584172796093 0 5369.0 2.349584172796093 1
gene  1 1162 21 -1.1139031165759437 0 5410.0 -1.1139031165759437 1
gene  1 628 1176 3.1236655209985384 0 5418.0 3.1236655209985384 1
gene  1 1176 7 4.085064631992722 0 5419.0 4.085064631992722 1
gene  3 34 7 0.8965187160356308 0 5474.0 0.8965187160356308 1
gene  2 466 34 -0.9421916526810357 0 5587.0 -0.9421916526810357 1
gene  2 466 943 4.984995192433013 0 5691.0 4.984995192433013 1
gene  2 611 1176 0.8060725811518588 0 5738.0 0.8060725811518588 1
gene  1 943 1246 -1.9982739212618845 0 5753.0 -1.9982739212618845 1
gene  1 1246 10 1.7254113722676205 0 5754.0 1.7254113722676205 1
gene  3 236 590 -1.7982459145033045 0 5919.0 -1.7982459145033045 1
gene  1 440 943 1.166724127173084 0 5962.0 1.166724127173084 1
gene  2 1246 5 -2.580917518720476 0 6180.0 -2.580917518720476 1
gene  2 522 887 0.18506057930967124 0 6217.0 0.18506057930967124 1
gene  2 2 1355 3.8332980120410785 0 6258.0 3.8332980120410785 1
gene  2 1355 21 0.6747646401156748 0 6259.0 0.6747646401156748 1
gene  3 1355 943 -1.4138153712644752 0 6416.0 -1.4138153712644752 1
gene  2 440 502 -2.3659589238038956 0 6522.0 -2.3659589238038956 1
gene  1 943 1423 1.4814971476981915 0 6585.0 1.4814971476981915 1
gene  1 1423 1246 -3.5335258756572037 0 6586.0 -3.5335258756572037 1
gene  2 5 887 -6.958796665376073 0 6616.0 -6.958796665376073 1
gene  1 440 466 2.9350216208502427 0 6678.0 2.9350216208502427 1
gene  1 484 628 8.817302470929082 0 6716.0 8.817302470929082 1
gene  1 3 943 3.4591550580538883 0 6730.0 3.4591550580538883 1
gene  2 3 522 6.33710704639808 0 6774.0 6.33710704639808 1
gene  1 502 927 -4.342576985581275 0 6786.0 -4.342576985581275 1
gene  2 236 34 -8.478231200325629 0 6836.0 -8.478231200325629 1
gene  2 2 1477 2.99187393198521 0 6852.0 2.99187393198521 1
gene  2 1477 7 -0.5328562070424232 0 6853.0 -0.5328562070424232 1
gene  2 34 1484 1.0 0 6888.0 1.0 1
gene  2 1484 705 5.9904490774874395 0 6889.0 5.9904490774874395 1
gene  3 1176 1477 -1.8626566367487212 0 6910.0 -1.8626566367487212 1
gene  3 293 4 -3.135063372861592 0 6942.0 -3.135063372861592 1
gene  1 887 1176 1.7590056451142921 0 6985.0 1.7590056451142921 1
genomeend 8
/* Organism # 009 Fitness:  0,000 Error:  0,000                      */
genomestart  9
trait 1 0.6489620646775441 0.0 0.0 0.0 0.15286354174562805 0.0 0.3900313924978889 0.35661965371392773 
trait 2 1.074811330873656 0.9171019701119769 0.6506021312870152 1.6640528422322318 1.3013589191270647 0.6536908226448365 0.12809857777412514 0.11511788893623909 
trait 3 1.2950104924035806 0.13530548914241503 1.3276745383119515 0.8632268314171132 0.4221298963308197 0.07327896901387221 0.0 1.426617088196195 
node 1 1 1 1
node 2 1 1 1
node 3 1 1 3
node 4 3 0 2
node 5 1 0 2
node 7 2 0 0
node 10 2 0 0
node 21 1 0 0
node 34 1 0 0
node 176 1 0 0
node 236 3 0 0
node 244 2 0 0
node 293 3 0 0
node 412 1 0 0
node 426 1 0 0
node 440 1 0 0
node 466 1 0 0
node 484 1 0 0
node 502 1 0 0
node 510 1 0 0
node 522 1 0 0
node 590 1 0 0
node 611 1 0 0
node 628 1 0 0
node 705 1 0 0
node 887 1 0 0
node 927 1 0 0
node 943 1 0 0
node 1123 1 0 0
node 1162 1 0 0
node 1176 1 0 0
node 1246 1 0 0
node 1355 1 0 0
node 1423 1 0 0
node 1477 1 0 0
node 1484 1 0 0
gene  2 1 4 -20.06414081854913 0 1.0 -20.06414081854913 0
gene  2 2 4 2.2303226687621374 0 2.0 2.2303226687621374 1
gene  2 3 4 3.047492348018916 0 3.0 3.047492348018916 1
gene  2 1 5 -7.404358877623788 0 4.0 -7.404358877623788 1
gene  2 2 5 -0.658632202402851 0 5.0 -0.658632202402851 1
gene  2 3 5 0.6676877685591156 0 6.0 0.6676877685591156 1
gene  1 1 7 -3.222699058824131 0 13.0 -3.222699058824131 1
gene  3 7 4 -3.792068962541916 0 14.0 -3.792068962541916 1
gene  1 5 7 2.1915171936057836 0 17.0 2.1915171936057836 1
gene  2 2 10 1.6049500204392904 0 26.0 1.6049500204392904 1
gene  1 10 4 -1.7272257184752469 0 27.0 -1.7272257184752469 1
gene  2 2 21 -5.816468888601791 0 83.0 -5.816468888601791 1
gene  2 21 4 -2.642666633757262 0 84.0 -2.642666633757262 1
gene  2 1 34 -5.800659282586297 0 140.0 -5.800659282586297 1
gene  2 34 5 -2.243500387142215 0 141.0 -2.243500387142215 1
gene  1 34 21 6.354446722931808 0 333.0 6.354446722931808 1
gene  2 1 10 -1.6382670019261774 0 502.0 -1.6382670019261774 1
gene  2 10 5 -3.372279894603598 0 544.0 -3.372279894603598 1
gene  3 3 7 5.302903344999654 0 744.0 5.302903344999654 1
gene  1 34 176 4.982035359220657 0 769.0 4.982035359220657 1
gene  1 176 21 -1.4506557501876385 0 770.0 -1.4506557501876385 1
gene  2 1 176 2.984062117312865 0 830.0 2.984062117312865 1
gene  2 2 7 0.3420454559249034 0 942.0 0.3420454559249034 1
gene  1 1 236 4.960978495377561 0 1009.0 4.960978495377561 1
gene  1 236 5 -2.0141151636443526 0 1010.0 -2.0141151636443526 1
gene  1 5 244 17.49070094870028 0 1042.0 17.49070094870028 1
gene  1 244 7 6.701576016052158 0 1043.0 6.701576016052158 1
gene  2 2 293 2.247943796540064 0 1235.0 2.247943796540064 1
gene  2 293 21 1.6739063074273666 0 1236.0 1.6739063074273666 1
gene  2 7 293 -1.5729898218448497 0 1614.0 -1.5729898218448497 1
gene  1 236 10 -3.1494040546341613 0 1734.0 -3.1494040546341613 1
gene  1 2 412 3.280018750898401 0 1770.0 3.280018750898401 1
gene  2 412 10 -5.827405335743379 0 1771.0 -5.827405335743379 1
gene  1 5 426 0.11442801111045897 0 1846.0 0.11442801111045897 1
gene  1 426 7 2.9391310814302454 0 1847.0 2.9391310814302454 0
gene  2 244 293 -1.145402324187633 0 1883.0 -1.145402324187633 1
gene  2 2 440 12.632872146194204 0 1903.0 12.632872146194204 1
gene  1 440 412 -3.383665105174761 0 1904.0 -3.383665105174761 1
gene  1 1 244 -1.3688095640424258 0 1984.0 -1.3688095640424258 1
gene  1 1 466 22.384695134354843 0 2026.0 22.384695134354843 1
gene  1 466 7 0.8571177462048054 0 2027.0 0.8571177462048054 1
gene  2 3 293 2.801935025950882 0 2100.0 2.801935025950882 1
gene  1 1 484 4.2386054715079515 0 2116.0 4.2386054715079515 1
gene  1 484 244 -1.6301700418628007 0 2117.0 -1.6301700418628007 1
gene  1 466 5 4.672518671256958 0 2153.0 4.672518671256958 1
gene  1 236 502 -2.1983134899841623 0 2189.0 -2.1983134899841623 1
gene  3 502 10 1.0485774774432555 0 2190.0 1.0485774774432555 1
gene  3 34 426 2.8704874031699594 0 2213.0 2.8704874031699594 1
gene  1 502 510 -2.349665153595707 0 2224.0 -2.349665153595707 1
gene  1 510 10 -1.5634476772336705 0 2225.0 -1.5634476772336705 1
gene  3 440 21 -7.379994683425257 0 2256.0 -7.379994683425257 1
gene  2 34 522 -0.9647772349666133 0 2274.0 -0.9647772349666133 1
gene  3 522 426 -2.1984086951518247 0 2275.0 -2.1984086951518247 1
gene  2 466 510 0.8215294630468694 0 2446.0 0.8215294630468694 1
gene  2 236 293 -8.829338697385733 0 2572.0 -8.829338697385733 1
gene  2 412 7 -2.1278855991506886 0 2579.0 -2.1278855991506886 1
gene  1 466 590 9.002571631515538 0 2611.0 9.002571631515538 1
gene  1 590 5 1.692946433034718 0 2612.0 1.692946433034718 1
gene  1 34 611 -7.2360921679289785 0 2696.0 -7.2360921679289785 1
gene  1 611 176 -2.4660130762604737 0 2697.0 -2.4660130762604737 1
gene  3 10 611 -1.8845195327861368 0 2728.0 -1.8845195327861368 1
gene  2 412 244 3.120876131813695 0 2751.0 3.120876131813695 1
gene  1 5 628 0.6803444374843548 0 2769.0 0.6803444374843548 1
gene  1 628 7 -2.2422260769480915 0 2770.0 -2.2422260769480915 0
gene  2 34 705 3.9740265303240263 0 3123.0 3.9740265303240263 0
gene  2 705 522 -0.3642414656456283 0 3124.0 -0.3642414656456283 1
gene  1 590 176 0.43647095342809555 0 3271.0 0.43647095342809555 1
gene  1 236 440 -0.4992205411136851 0 3959.0 -0.4992205411136851 1
gene  1 484 887 0.4936555984694323 0 3977.0 0.4936555984694323 1
gene  1 887 244 2.2311603796409094 0 3978.0 2.2311603796409094 1
gene  2 611 484 1.2135824278462988 0 3993.0 1.2135824278462988 1
gene  2 5 611 1.1729233853812513 0 4021.0 1.1729233853812513 1
gene  2 611 21 7.876360425081508 0 4166.0 7.876360425081508 1
gene  2 2 927 12.14215909248899 0 4190.0 12.14215909248899 1
gene  2 927 21 3.5812920721867583 0 4191.0 3.5812920721867583 1
gene  1 236 943 -1.7406824477643437 0 4259.0 -1.7406824477643437 1
gene  1 943 10 6.969214688169687 0 4260.0 6.969214688169687 1
gene  3 943 293 -5.243588891296364 0 4285.0 -5.243588891296364 1
gene  1 176 426 2.5099185507456476 0 4524.0 2.5099185507456476 1
gene  2 293 927 -1.938993861807977 0 4598.0 -1.938993861807977 1
gene  2 705 611 2.667683748213345 0 4636.0 2.667683748213345 1
gene  1 466 21 -3.471320443511697 0 4649.0 -3.471320443511697 1
gene  3 943 705 -6.486362033501473 0 4696.0 -6.486362033501473 1
gene  2 236 1123 2.8135895563075093 0 5156.0 2.8135895563075093 1
gene  2 1123 293 -2.124886578919531 0 5157.0 -2.124886578919531 1
gene  1 34 927 -4.514294670965427 0 5208.0 -4.514294670965427 1
gene  3 412 426 4.715991823778607 0 5253.0 4.715991823778607 1
gene  1 1 1162 10.24330734844789 0 5368.0 10.24330734844789 1
gene  1 1162 236 1.870617627103086 0 5369.0 1.870617627103086 1
gene  1 1162 21 -2.287318102344072 0 5410.0 -2.287318102344072 1
gene  1 628 1176 0.8684692727392029 0 5418.0 0.8684692727392029 1
gene  1 1176 7 2.199659607231861 0 5419.0 2.199659607231861 1
gene  3 34 7 1.8338165493921754 0 5474.0 1.8338165493921754 1
gene  2 466 34 -0.06111656665881515 0 5587.0 -0.06111656665881515 1
gene  2 466 943 4.7271401389771865 0 5691.0 4.7271401389771865 1
gene  2 611 1176 -1.6765868395562604 0 5738.0 -1.6765868395562604 1
gene  1 943 1246 -1.7190039643874662 0 5753.0 -1.7190039643874662 1
gene  1 1246 10 1.5861441559732405 0 5754.0 1.5861441559732405 1
gene  3 236 590 0.6564034047252192 0 5919.0 0.6564034047252192 1
gene  1 440 943 2.7021341173978097 0 5962.0 2.7021341173978097 1
gene  2 1246 5 -4.324217616966663 0 6180.0 -4.324217616966663 1
gene  2 522 887 1.0302177456325485 0 6217.0 1.0302177456325485 1
gene  2 2 1355 3.787918002160919 0 6258.0 3.787918002160919 1
gene  2 1355 21 -1.6473981952696586 0 6259.0 -1.6473981952696586 1
gene  3 1355 943 -1.3784381613176246 0 6416.0 -1.3784381613176246 1
gene  2 440 502 -1.4863422229005618 0 6522.0 -1.4863422229005618 1
gene  1 943 1423 -0.38865071639843596 0 6585.0 -0.38865071639843596 1
gene  1 1423 1246 -1.002037333653622 0 6586.0 -1.002037333653622 1
gene  2 5 887 -6.950862429627351 0 6616.0 -6.950862429627351 1
gene  1 440 466 2.6346698207392216 0 6678.0 2.6346698207392216 1
gene  1 484 628 11.088648214999111 0 6716.0 11.088648214999111 1
gene  1 3 943 4.367480627514912 0 6730.0 4.367480627514912 1
gene  2 3 522 8.403920851996151 0 6774.0 8.403920851996151 1
gene  1 502 927 -1.344877382059608 0 6786.0 -1.344877382059608 1
gene  2 236 34 -10.524423349281316 0 6836.0 -10.524423349281316 1
gene  2 2 1477 1.3561172358941047 0 6852.0 1.3561172358941047 1
gene  2 1477 7 0.6390225836426541 0 6853.0 0.6390225836426541 1
gene  2 34 1484 -0.9707422184906487 0 6888.0 -0.9707422184906487 1
gene  2 1484 705 -0.8142525418745841 0 6889.0 -0.8142525418745841 1
gene  3 1176 1477 2.1827506378937205 0 6910.0 2.1827506378937205 1
gene  3 293 4 -3.135063372861592 0 6942.0 -3.135063372861592 1
gene  1 887 1176 1.6744106139059065 0 6985.0 1.6744106139059065 1
genomeend 9
/*-------------------------------------------------------------------*/
/* Species # 377         : (size= 001) (AvfFit= 0,115) (Age= 17,000)  */
/*-------------------------------------------------------------------*/
/* Organism # 010 Fitness:  0,000 Error:  0,000                      */
genomestart  10
trait 1 0.6489620646775441 0.0 0.8041485845745868 0.0 0.0513512796735765 0.1345611695318042 0.3900313924978889 0.5265989635428732 
trait 2 1.707591530340244 0.03170152795957956 0.8573625748418073 0.6834717297193866 0.0 0.1988079148902394 0.03369824536213028 0.2224083326634907 
trait 3 1.2950104924035806 0.13530548914241503 1.3276745383119515 0.8632268314171132 0.4221298963308197 0.07327896901387221 0.0 1.426617088196195 
node 1 1 1 1
node 2 1 1 1
node 3 1 1 3
node 4 3 0 2
node 5 1 0 2
node 7 2 0 0
node 10 2 0 0
node 21 1 0 0
node 34 1 0 0
node 176 1 0 0
node 236 3 0 0
node 244 2 0 0
node 293 3 0 0
node 412 1 0 0
node 426 1 0 0
node 440 1 0 0
node 466 1 0 0
node 484 1 0 0
node 502 1 0 0
node 510 1 0 0
node 522 1 0 0
node 590 1 0 0
node 611 1 0 0
node 628 1 0 0
node 705 1 0 0
node 887 1 0 0
node 927 1 0 0
node 943 1 0 0
node 1123 1 0 0
node 1162 1 0 0
node 1176 1 0 0
node 1246 1 0 0
node 1355 1 0 0
node 1423 1 0 0
node 1448 1 0 0
gene  2 1 4 -1.8798577195229786 0 1.0 -1.8798577195229786 1
gene  2 2 4 -5.457812958321031 0 2.0 -5.457812958321031 1
gene  2 3 4 0.856162913833879 0 3.0 0.856162913833879 1
gene  2 1 5 -3.520538329277099 0 4.0 -3.520538329277099 1
gene  2 2 5 -4.895068983597987 0 5.0 -4.895068983597987 1
gene  2 3 5 -0.2034296959904769 0 6.0 -0.2034296959904769 1
gene  1 1 7 0.32513536206572136 0 13.0 0.32513536206572136 1
gene  3 7 4 1.4413616360994097 0 14.0 1.4413616360994097 1
gene  1 5 7 -3.0097810700599683 0 17.0 -3.0097810700599683 1
gene  2 2 10 8.019808094326871 0 26.0 8.019808094326871 1
gene  1 10 4 3.166820508195741 0 27.0 3.166820508195741 1
gene  2 2 21 0.7980614947547535 0 83.0 0.7980614947547535 1
gene  2 21 4 -1.4983099704188203 0 84.0 -1.4983099704188203 1
gene  2 1 34 -7.28265272600648 0 140.0 -7.28265272600648 1
gene  2 34 5 4.2754418576365545 0 141.0 4.2754418576365545 1
gene  1 34 21 0.05123582928267162 0 333.0 0.05123582928267162 1
gene  2 1 10 0.508256388686352 0 502.0 0.508256388686352 1
gene  2 10 5 -3.1116300245293647 0 544.0 -3.1116300245293647 1
gene  3 3 7 13.309112500451041 0 744.0 13.309112500451041 1
gene  1 34 176 0.11219186769605205 0 769.0 0.11219186769605205 1
gene  1 176 21 2.9880221226554196 0 770.0 2.9880221226554196 1
gene  2 1 176 3.889364139131289 0 830.0 3.889364139131289 1
gene  2 2 7 1.1621066313556379 0 942.0 1.1621066313556379 1
gene  1 1 236 0.6574677525714412 0 1009.0 0.6574677525714412 1
gene  1 236 5 1.1201260131005801 0 1010.0 1.1201260131005801 1
gene  1 5 244 -8.587768816636565 0 1042.0 -8.587768816636565 1
gene  1 244 7 10.675097635570685 0 1043.0 10.675097635570685 1
gene  2 2 293 7.827355400367136 0 1235.0 7.827355400367136 1
gene  2 293 21 4.976859496530353 0 1236.0 4.976859496530353 1
gene  2 7 293 2.2417625228182185 0 1614.0 2.2417625228182185 1
gene  1 236 10 1.9245733928333455 0 1734.0 1.9245733928333455 1
gene  1 2 412 4.071232409172062 0 1770.0 4.071232409172062 1
gene  2 412 10 -0.2330661346646825 0 1771.0 -0.2330661346646825 1
gene  1 5 426 1.345221324467416 0 1846.0 1.345221324467416 1
gene  1 426 7 0.41548887883505614 0 1847.0 0.41548887883505614 1
gene  2 244 293 -8.257670996769619 0 1883.0 -8.257670996769619 1
gene  2 2 440 2.4426925804340964 0 1903.0 2.4426925804340964 1
gene  1 440 412 -2.6729286156594703 0 1904.0 -2.6729286156594703 1
gene  1 1 244 -3.116136308539905 0 1984.0 -3.116136308539905 1
gene  1 1 466 29.459813134864596 0 2026.0 29.459813134864596 1
gene  1 466 7 -3.417053500951022 0 2027.0 -3.417053500951022 1
gene  2 3 293 3.597108400867209 0 2100.0 3.597108400867209 1
gene  1 1 484 2.3791100630556263 0 2116.0 2.3791100630556263 1
gene  1 484 244 1.321007515435697 0 2117.0 1.321007515435697 1
gene  1 466 5 10.092608384584231 0 2153.0 10.092608384584231 1
gene  1 236 502 4.717477222662001 0 2189.0 4.717477222662001 1
gene  3 502 10 -1.823733362176137 0 2190.0 -1.823733362176137 1
gene  3 34 426 -1.8673167299474387 0 2213.0 -1.8673167299474387 1
gene  1 502 510 0.9396419921622654 0 2224.0 0.9396419921622654 1
gene  1 510 10 5.306282425609517 0 2225.0 5.306282425609517 1
gene  3 440 21 -4.167603035609987 0 2256.0 -4.167603035609987 1
gene  2 34 522 0.4503132541099042 0 2274.0 0.4503132541099042 1
gene  3 522 426 1.074223218213579 0 2275.0 1.074223218213579 1
gene  2 466 510 3.232644579679606 0 2446.0 3.232644579679606 1
gene  2 236 293 -9.608440346466711 0 2572.0 -9.608440346466711 1
gene  2 412 7 2.5700821060682193 0 2579.0 2.5700821060682193 1
gene  1 466 590 13.33135292739572 0 2611.0 13.33135292739572 1
gene  1 590 5 7.769013435356709 0 2612.0 7.769013435356709 1
gene  1 34 611 -13.223047406777514 0 2696.0 -13.223047406777514 1
gene  1 611 176 -1.6905169461364 0 2697.0 -1.6905169461364 1
gene  3 10 611 9.869135628702045 0 2728.0 9.869135628702045 1
gene  2 412 244 -0.6795489603951279 0 2751.0 -0.6795489603951279 1
gene  1 5 628 -8.524522085544506 0 2769.0 -8.524522085544506 1
gene  1 628 7 0.216788393897836 0 2770.0 0.216788393897836 1
gene  2 34 705 -2.327352894160669 0 3123.0 -2.327352894160669 1
gene  2 705 522 -12.502813747704396 0 3124.0 -12.502813747704396 1
gene  1 590 176 3.2121781391510327 0 3271.0 3.2121781391510327 1
gene  1 236 440 -1.4632924490665367 0 3959.0 -1.4632924490665367 1
gene  1 484 887 -2.3455199971479885 0 3977.0 -2.3455199971479885 1
gene  1 887 244 -10.023477679847453 0 3978.0 -10.023477679847453 1
gene  2 611 484 6.483483819710925 0 3993.0 6.483483819710925 1
gene  2 5 611 -2.4907549491379575 0 4021.0 -2.4907549491379575 1
gene  2 611 21 2.095457021562577 0 4166.0 2.095457021562577 1
gene  2 2 927 1.4071954753696692 0 4190.0 1.4071954753696692 1
gene  2 927 21 2.6674065089181487 0 4191.0 2.6674065089181487 1
gene  1 236 943 2.9273923690733916 0 4259.0 2.9273923690733916 1
gene  1 943 10 -11.194163058472952 0 4260.0 -11.194163058472952 1
gene  3 943 293 3.694642319818259 0 4285.0 3.694642319818259 1
gene  1 176 426 0.3213019649571075 0 4524.0 0.3213019649571075 1
gene  2 293 927 2.7949222488242276 0 4598.0 2.7949222488242276 1
gene  2 705 611 -4.8784273915493666 0 4636.0 -4.8784273915493666 1
gene  1 466 21 -0.16515409819444327 0 4649.0 -0.16515409819444327 1
gene  3 943 705 1.6537829599016325 0 4696.0 1.6537829599016325 1
gene  2 236 1123 -5.571240682373831 0 5156.0 -5.571240682373831 1
gene  2 1123 293 7.764876448973122 0 5157.0 7.764876448973122 1
gene  3 34 927 0.13333448362453137 0 5208.0 0.13333448362453137 1
gene  3 412 426 -5.628843622750766 0 5253.0 -5.628843622750766 1
gene  1 1 1162 -5.443233327617552 0 5368.0 -5.443233327617552 1
gene  1 1162 236 2.8873777448831888 0 5369.0 2.8873777448831888 1
gene  1 1162 21 1.0106483202010053 0 5410.0 1.0106483202010053 1
gene  1 628 1176 0.04528861464169376 0 5418.0 0.04528861464169376 1
gene  1 1176 7 0.9565175044454128 0 5419.0 0.9565175044454128 1
gene  3 34 7 -2.5571185313440266 0 5474.0 -2.5571185313440266 1
gene  2 466 34 -2.0584816289399184 0 5587.0 -2.0584816289399184 1
gene  2 466 943 3.0617623502179705 0 5691.0 3.0617623502179705 1
gene  2 611 1176 0.5714922295906759 0 5738.0 0.5714922295906759 1
gene  1 943 1246 -1.8764717684338152 0 5753.0 -1.8764717684338152 1
gene  1 1246 10 -2.0117105651462595 0 5754.0 -2.0117105651462595 1
gene  3 236 590 1.9816535969727935 0 5919.0 1.9816535969727935 1
gene  1 440 943 -1.3019670045154241 0 5962.0 -1.3019670045154241 1
gene  2 1246 5 -0.994476446178742 0 6180.0 -0.994476446178742 1
gene  2 522 887 0.9423747782554146 0 6217.0 0.9423747782554146 1
gene  2 2 1355 -0.11340128322199522 0 6258.0 -0.11340128322199522 1
gene  3 1355 21 -0.2817654431273615 0 6259.0 -0.2817654431273615 1
gene  3 1355 943 -4.3369407015585315 0 6416.0 -4.3369407015585315 1
gene  2 440 502 -0.8971759903449048 0 6522.0 -0.8971759903449048 1
gene  1 943 1423 -1.687547507475889 0 6585.0 -1.687547507475889 1
gene  1 1423 1246 2.277729980985583 0 6586.0 2.277729980985583 1
gene  2 5 887 -3.8060320707521407 0 6616.0 -3.8060320707521407 1
gene  3 1123 502 5.973649077908347 0 6669.0 5.973649077908347 1
gene  2 705 1448 2.7851030379744484 0 6720.0 2.7851030379744484 1
gene  2 1448 522 0.1672742616543545 0 6721.0 0.1672742616543545 1
gene  1 236 628 2.419298246672195 0 6940.0 2.419298246672195 1
gene  3 1 943 0.706401054561225 0 7152.0 0.706401054561225 1
genomeend 10
/*-------------------------------------------------------------------*/
/* Species # 379         : (size= 002) (AvfFit= 0,180) (Age= 17,000)  */
/*-------------------------------------------------------------------*/
/* Organism # 011 Fitness:  0,000 Error:  0,000                      */
genomestart  11
trait 1 0.48943095868929576 0.32181902849234306 0.0 0.3699575824465779 0.15286354174562805 0.0 0.3900313924978889 0.08915491342848193 
trait 2 1.1617727389316044 0.03170152795957956 0.08181549485392925 0.0 0.0 0.15183219442820362 0.0 1.0154089906758657 
trait 3 1.195946093675977 0.18036140526251243 1.0949876167106527 1.5377378249987554 0.8442597926616394 0.0 0.0 0.8374615265720824 
node 1 1 1 1
node 2 1 1 1
node 3 1 1 3
node 4 3 0 2
node 5 1 0 2
node 7 2 0 0
node 10 2 0 0
node 21 1 0 0
node 34 1 0 0
node 176 1 0 0
node 236 3 0 0
node 244 3 0 0
node 293 1 0 0
node 412 1 0 0
node 426 3 0 0
node 440 1 0 0
node 466 1 0 0
node 484 1 0 0
node 502 1 0 0
node 510 1 0 0
node 522 1 0 0
node 590 1 0 0
node 611 1 0 0
node 628 1 0 0
node 705 1 0 0
node 887 1 0 0
node 927 1 0 0
node 943 1 0 0
node 1123 1 0 0
node 1146 1 0 0
node 1161 3 0 0
node 1216 1 0 0
node 1280 1 0 0
node 1421 1 0 0
node 1453 1 0 0
node 1464 1 0 0
node 1485 1 0 0
gene  2 1 4 -0.9954329887763425 0 1.0 -0.9954329887763425 1
gene  2 2 4 0.1524727897017013 0 2.0 0.1524727897017013 1
gene  2 3 4 -1.0356594719503727 0 3.0 -1.0356594719503727 1
gene  2 1 5 -1.6140692088656423 0 4.0 -1.6140692088656423 1
gene  2 2 5 3.480285718537141 0 5.0 3.480285718537141 0
gene  2 3 5 -1.025314502836983 0 6.0 -1.025314502836983 1
gene  1 1 7 4.435906358028551 0 13.0 4.435906358028551 1
gene  3 7 4 -8.243731340461652 0 14.0 -8.243731340461652 1
gene  1 5 7 0.18505741638965167 0 17.0 0.18505741638965167 1
gene  2 2 10 1.7196265088437013 0 26.0 1.7196265088437013 1
gene  1 10 4 4.30767040819625 0 27.0 4.30767040819625 1
gene  2 2 21 -1.5525835422411487 0 83.0 -1.5525835422411487 0
gene  2 21 4 2.9889787126407352 0 84.0 2.9889787126407352 1
gene  2 1 34 2.052746047543828 0 140.0 2.052746047543828 1
gene  2 34 5 -0.45134980054028884 0 141.0 -0.45134980054028884 1
gene  1 34 21 -0.3620489813174239 0 333.0 -0.3620489813174239 1
gene  2 1 10 -2.8174360201606135 0 502.0 -2.8174360201606135 1
gene  2 10 5 -0.844690804527416 0 544.0 -0.844690804527416 1
gene  3 3 7 -1.0372199826633164 0 744.0 -1.0372199826633164 1
gene  1 34 176 -1.7489787782264694 0 769.0 -1.7489787782264694 1
gene  3 176 21 -3.706092966736408 0 770.0 -3.706092966736408 1
gene  2 1 176 -2.700643558710392 0 830.0 -2.700643558710392 1
gene  1 2 7 0.6599070565313896 0 942.0 0.6599070565313896 1
gene  1 1 236 -12.396390975639553 0 1009.0 -12.396390975639553 1
gene  1 236 5 1.632816204077011 0 1010.0 1.632816204077011 1
gene  1 5 244 0.16762719099505663 0 1042.0 0.16762719099505663 1
gene  1 244 7 -2.1012183302699787 0 1043.0 -2.1012183302699787 1
gene  2 2 293 2.120807721016572 0 1235.0 2.120807721016572 1
gene  2 293 21 5.240671576860896 0 1236.0 5.240671576860896 1
gene  2 7 293 5.9837155831981566 0 1614.0 5.9837155831981566 1
gene  1 236 10 21.814202000740178 0 1734.0 21.814202000740178 0
gene  2 2 412 -0.33474122462435263 0 1770.0 -0.33474122462435263 1
gene  2 412 10 2.253638968783394 0 1771.0 2.253638968783394 1
gene  1 5 426 -1.591278157348846 0 1846.0 -1.591278157348846 1
gene  1 426 7 1.169683304540854 0 1847.0 1.169683304540854 1
gene  2 244 293 0.5098499494317756 0 1883.0 0.5098499494317756 1
gene  2 2 440 -2.8051115169551175 0 1903.0 -2.8051115169551175 1
gene  2 440 412 0.8533914854787674 0 1904.0 0.8533914854787674 1
gene  1 1 244 -3.6245707234247653 0 1984.0 -3.6245707234247653 0
gene  1 1 466 2.843363194889606 0 2026.0 2.843363194889606 1
